,wght_V_layer_0,wght_V_layer_1,wght_V_layer_2,wght_V_layer_3,wght_V_layer_4,wght_V_layer_5,wght_V_layer_6,wght_V_layer_7,wght_V_layer_8,wght_V_layer_9,wght_V_layer_10,wght_V_layer_11,wght_V_layer_12,wght_V_layer_13,wght_V_layer_14,wght_V_layer_15,wght_V_layer_16,wght_V_layer_17,wght_V_layer_18,wght_V_layer_19,wght_V_layer_20,wght_V_layer_21,wght_V_layer_22,wght_V_layer_23,wght_V_layer_24,wght_V_layer_25,wght_V_layer_26,wght_V_layer_27,wght_V_layer_28,wght_V_layer_29,wght_V_layer_30,wght_V_layer_31,wght_V_layer_32,wght_V_layer_33,wght_V_layer_34,wght_V_layer_35,wght_V_layer_36,wght_V_layer_37,wght_V_layer_38,wght_V_layer_39,wght_V_layer_40,wght_V_layer_41,wght_V_layer_42,wght_V_layer_43,wght_V_layer_44,wght_V_layer_45,wght_V_layer_46,wght_V_layer_47,wght_V_layer_48,wght_V_layer_49,wght_V_layer_50,wght_V_layer_51,wght_V_layer_52,wght_V_layer_53,wght_V_layer_54,wght_V_layer_55,wght_V_layer_56,wght_V_layer_57,wght_V_layer_58,wght_V_layer_59,wght_V_layer_60,wght_V_layer_61,wght_V_layer_62,wght_V_layer_63,wght_V_layer_64,wght_V_layer_65,wght_V_layer_66,wght_V_layer_67,wght_V_layer_68,wght_V_layer_69,wght_V_layer_70,wght_V_layer_71,wght_V_layer_72,wght_V_layer_73,wght_V_layer_74,wght_V_layer_75,wght_V_layer_76,wght_V_layer_77,wght_V_layer_78,wght_V_layer_79,wght_V_layer_80,wght_V_layer_81,wght_V_layer_82,wght_V_layer_83,wght_V_layer_84,wght_V_layer_85,wght_V_layer_86,wght_V_layer_87,wght_V_layer_88,wght_V_layer_89,wght_V_layer_90,wght_V_layer_91,wght_V_layer_92,wght_V_layer_93,wght_V_layer_94,wght_V_layer_95,wght_V_layer_96,wght_V_layer_97,wght_V_layer_98,wght_V_layer_99,wght_V_layer_100,wght_V_layer_101,wght_V_layer_102,wght_V_layer_103,wght_V_layer_104,wght_V_layer_105,wght_V_layer_106,wght_V_layer_107,wght_V_layer_108,wght_V_layer_109,wght_V_layer_110,wght_V_layer_111,wght_V_layer_112,wght_V_layer_113,wght_V_layer_114,wght_V_layer_115,wght_V_layer_116,wght_V_layer_117,wght_V_layer_118,wght_V_layer_119,wght_V_layer_120,wght_V_layer_121,wght_V_layer_122,wght_V_layer_123,wght_V_layer_124,wght_V_layer_125,wght_V_layer_126,wght_V_layer_127
wght_V_input_0,0.23359649518200498,0.2161320490421745,0.20493732075108514,0.07529490521286895,0.13734257499798946,-0.040505714408700724,0.3825681057800207,-0.23150606410157887,0.17483154068087578,-0.04027642045000902,0.24885963424485816,-0.06006185206499316,-0.04963623532795263,-0.1933707471208301,0.0524624158716497,0.18831141076580415,0.5018855019375843,0.07069440697856176,0.18620555404364114,0.043898093383676576,-0.14673586752515752,0.20040604812680005,0.1033216622648014,-0.19526604701192182,-0.20454017201673033,0.01354281083572192,0.03212149870597597,0.028503880241420382,0.05615275240092777,0.4343582782033672,0.20383422089709324,0.25811855249794075,0.004834593016476596,0.11343175955801343,0.1400842842018577,0.012797234826751068,0.07377702310078467,-0.020205968587360176,0.1365412424230428,-0.14225123900254588,0.0142813383596909,-0.12195597092244455,0.17164943437856128,0.03183940140126289,-0.16960083540062917,0.15286065051840345,0.034758596098307115,0.32018569729834045,-0.14890515297758042,-0.02674712247247316,-0.1615912924598451,-0.03496260841120657,0.08331862647549554,0.1220424159456499,0.15897987290630358,-0.011940629729128328,-0.10062667331269774,0.17850383372464546,-0.06568121672957548,0.08943694781402897,-0.04339076257678734,-0.16785988963850268,0.13815909548943578,0.20746545362152843,0.19760653965663658,-0.27467402986588507,-0.03885126575059233,0.14133045130314564,0.1325259940813648,0.13849549579273918,0.2191311251284225,0.061103778336338614,0.039368944336382536,0.18993577589708796,-0.0867194096502489,0.08899881326948779,0.3243969577252737,0.057269936125084304,-0.24494968400723235,0.26676910126680303,0.04578989583120915,0.555168436582235,0.041268401471884084,0.03521976604884111,-0.10380340776280031,0.19391684103497506,0.023148858418709093,-0.040955239604087035,-0.20316612004047976,0.013387146472270189,0.23283010592520142,0.29411571164603334,-0.15140060700524838,-0.16537409276174406,0.18974308270744344,-0.062155122226875914,0.00250373367694298,0.10286960657905352,0.07091183610062055,0.10877672492504618,-0.023254296666926688,0.23948848056589989,0.18537234466131342,0.09647638061693448,0.05973088006852979,0.11270123496261993,0.13122742498809728,0.1896671931320936,-0.15844951404877824,0.06601477364273539,0.34539143691138396,-0.07663763253792741,-0.2881949934909211,0.11132855245777652,0.14761717981856085,-0.032520549585805934,0.440639712963713,0.16820616532242733,-0.2094208969360583,0.08756794185208239,0.03450398582520358,0.10706635922717762,-0.062488292206886,0.31269962869323387,0.14574733376186305,0.13533721434994292,0.14157598761005002,0.15781150311727402
wght_V_input_1,-0.12374977948716753,-0.049422665916377,-0.09936404805869553,-0.039173780995992204,-0.0860486027401371,0.08481971601761076,-0.044607503039302464,-0.1253605109911754,0.14882420567789922,-0.05113417523539061,-0.18939500566328818,0.004847965661984235,0.009444721406412206,-0.08236493972580675,0.04504979483604952,0.06811031730124295,-0.05795086588176751,-0.07603056040150932,0.0652515546965415,0.11209900887442793,-0.1850175219890291,0.26580785428216164,0.002844999538724695,0.10775655017676108,0.19021473039681286,-0.02357539281474403,-0.012092089402993488,0.07014098248827982,-0.2890687372881729,-0.002661322606261604,0.17509237455826449,-0.06327733980240992,-0.23041220172843474,-0.05569092463359845,-0.06450668794835425,-0.16262352113174142,-0.005442445465377747,0.09133048129485506,-0.20884858540916013,0.1656946703982648,0.015245868583264455,-0.07805242051360863,-0.04566641839559704,0.033753511154451625,0.1220982428394304,0.08696553729050294,-0.07375576858527781,-0.1520263072647007,0.05729405917037943,0.01278608921947435,0.019628639052389405,0.06388681022867704,0.13963118680248754,-0.07983647122776957,0.1695845487061963,-0.04699051938176555,0.15067593704506457,0.1888570327063511,-0.12418531878564718,0.08160522017856954,0.15292896623966654,-0.11763303649773652,0.2922882484304933,-0.09036506701491276,0.11003232863843973,0.03503368592333693,0.034778511086765294,-0.010628424498061385,-0.08563012200252446,-0.16296672688133432,0.20148866249682668,-0.11899781770642803,0.08055237064678006,-0.21855096356895645,0.17922033858594671,0.1397302796549133,-0.04210614390372757,-0.053208852082863384,-0.06329486825713099,0.03827353340933508,-0.1691624935160056,0.14149721304619453,0.11321484148469181,-0.10855445160282158,0.30894289779734163,0.02463223393936135,-0.07493447450901274,-0.058139844975250286,0.023690180062901304,0.024608531090885146,-0.16036585018837587,0.0764456561585747,0.223387043029195,0.11918213791576997,0.18842295689845914,0.039971200064683785,0.02761932176030313,0.19713105516381105,-0.05862926661966884,-0.1478823988651131,-0.08426357121773849,0.1835577864922653,0.0027362768356578564,0.03727543314252782,0.07423757101348873,0.14846676248261392,-0.05364315548354993,-0.09796017946007686,0.1627246039610688,0.031574306408303575,0.08465906871971753,0.06287979272099954,-0.021258065935526902,-0.042753549527765396,-0.14602396841004212,0.06645268235237801,0.1740505987998178,0.11029705097474406,-0.011304773536794549,-0.24344107558834693,-0.06591576038660564,-0.09403474282945115,-0.08829135971755141,0.19507634622809836,-0.10610899603339154,0.14878547875625528,0.07278542060837151,-0.10558172129185378
wght_V_input_2,-0.1448056914501477,-0.2017212046160591,0.20448080311502045,-0.28893457169101977,-0.23013882659875265,-0.04250909435968601,-0.06177557892548871,0.03120018675795395,9.249728434601248e-05,-0.23590135604658474,-0.010692269970872942,-0.14644393902861777,0.04778051577065694,-0.054464736861574894,0.0702055452216544,0.09929769818273534,0.0006516263404328679,-0.14634096162548957,-0.19743513700987245,-0.07635880941089938,0.09357349320403047,0.013715315185021632,0.16524653097130843,0.18144201047406025,-0.07180307484373945,0.21332935970016426,0.17048229968930426,0.03943700902059889,0.10280292045863224,-0.0790249277762261,-0.044358639264309316,0.22631270062198172,0.009072768228799986,-0.0011273383820088532,0.03807567436110337,0.10989954630603445,0.2565897517295131,-0.40076357258996714,-0.07512600815102438,-0.00562365188747439,-0.10279922721127258,0.03215457776026939,0.04390982538419726,-0.12514710724700417,0.3274239709591026,-0.16937966095135024,-0.16448464535001675,0.19485442100329,0.1805224594086539,-0.06181163192778321,-0.10022666618453717,-0.10354512709009694,-0.20055991326009326,0.023484579239392712,0.12183420954689836,0.1683491448621965,0.1278796512680049,0.16453276844749182,0.0431095771884561,0.00021415736907086773,0.015485582545171446,-0.04471099651946548,0.06169772319340309,0.01317663287703743,-0.09805816500802574,-0.02277194239759821,0.010796014700486857,0.13474124217550468,-0.2813370564541434,0.033785744712952086,0.1266387210685902,-0.009230541667685922,-0.25885905635134704,-0.23456190458428738,-0.2985671455665657,-0.04885483180332095,0.13936031946009012,-0.05953668222598214,0.19033704226328235,0.41922077906573735,0.05810349559196232,0.30301708184334847,-0.06812419710202748,-0.07881890536460517,0.2088404229063949,-0.06253399465613307,-0.02677667803065606,-0.029926738036765287,-0.20755393232798844,-0.03041635196982705,-0.23822975206990765,-0.10784755685647136,-0.31148397668283034,0.06166245715235102,-0.1347671894666219,0.09525015263947538,-0.09831547023777977,-0.07333015964795517,-0.13655661823444612,0.11964820679857495,0.35211020968936907,-0.01054857140387019,0.22068052920719256,-0.18741977125931536,0.17502510700812668,-0.14394018398013378,-0.17245015508327252,-0.22104249709611273,0.02467632677616824,-0.12786535661652457,0.1415920027147377,-0.10359547819026134,0.016322082663399202,0.0809518097386678,0.03884200821584058,0.09785910633709219,0.36070494682227905,-0.12206407619831185,0.15479556070126083,0.05074403669961038,0.014979902966149672,0.002951364389534273,-0.03427132999806004,0.019321517835698715,-0.12829411066902904,0.254905476226484,0.04575482342461023,0.07088369159423527
wght_V_input_3,-0.0485419756192498,0.03928141622766119,9.555289989783361e-05,0.1483309992811191,-0.0931919466551269,-0.0041139282752161626,-0.029506889642441407,-0.2111280953807209,0.001415102610754261,-0.025717780757887675,-0.15690361309360526,-0.09129663696934537,0.07427472747383826,-0.26818079732536415,-0.14370598650419855,0.14351199887712818,0.021341311092194233,0.2508334668276222,0.21418483622959403,0.07620283169210812,0.163456295549416,0.1903643348504316,-0.14760451928317705,-0.2594834361130938,0.08693539150517808,-0.015265712514667651,0.1959305210744548,0.03723473524839536,-0.10913354701679112,-0.14757133880831413,-0.033106720833407134,-0.11366841686622212,-0.35491312817733844,0.22622240624697992,-0.09060891805040969,-0.15377882995135125,0.19655677503793176,0.061829919523996274,-0.04258205580317347,-0.12330471655650849,0.28384641618755124,0.03456192012254546,-0.058496665456856035,-0.17452697690359303,-0.2865934620265719,-0.28769916480557467,0.043863887313626344,-0.09629066673730556,0.2076018962036784,-0.0730653766443093,0.0785700959151416,0.3571067467781912,-0.04190749110067378,0.08645931953949947,0.004220818050997617,0.05486281558184531,-0.024462063958639136,0.02878131670995642,-0.15729250378083878,-0.026032622968426688,0.012425941406125796,0.08922009285948777,-0.14098800577026976,0.06088248014458033,0.01568727857464965,0.3351010843382676,-0.23795347793503688,-0.003189228391298911,0.14274013949722011,-0.02909237161249988,-0.1453040316493407,-0.04748579958597839,0.12608714964072054,0.002304469721710029,-0.07924136470322453,-0.14602916873112226,0.025694940659091996,0.03602579686565334,-0.015662342698729185,-0.053077543726896353,-0.23549707521667873,-0.09544212678665787,-0.11606636568066943,0.059042201047443066,-0.08133942777340258,-0.01758911480311877,-0.13293189359464314,0.10101704197412187,0.041025301648642064,-0.05835031119151648,0.11442135068844593,-0.07248382194682712,-0.29848650846108826,-0.0038148606294564225,-0.31546698976471627,-0.006604442274995668,-0.16639740631234998,-0.061994781183255354,0.08698100850760476,-0.005578278127447375,-0.18126675374955575,0.08307512582677808,-0.03844485028999567,0.13586766161484864,0.32014049927864785,0.13258772331541155,0.025561018347983844,-0.20939349399516546,-0.06322871688558088,0.015567106748518416,0.021088860053842414,-0.009813188350361246,0.17059850657815606,-0.06831921668286939,0.019172347580688635,-0.04287126774916887,-0.14541515840305824,-0.041054094055345366,-0.05442847990690375,0.04845331155754999,0.04323611009816312,-0.2734501658572227,0.17588928940752083,0.2586284003219868,0.2583647399609333,0.04670003365085904,-0.060739138000758905,0.20019382724815576
wght_V_input_4,-0.03187613243293543,-0.16467422231354284,0.0104959981033485,-0.0739327181065861,-0.15801323553853752,-0.22264519491308538,-0.14579038590559343,0.44532878615588783,0.18744270771300198,0.23324126918094695,-0.2936014912149728,0.0811692577633041,-0.06730751318490788,0.020638196475617827,0.05972682027667181,0.09748318902547493,-0.20846125565137555,-0.14337289039690304,-0.0782136158861527,-0.10705624897292766,-0.09224187461087494,0.06218299646916805,-0.12257333160884322,0.056754990952167086,-0.2263010540614348,-0.26534360796173107,-0.3854810386068686,0.24735225470477218,0.007893094528201599,0.0018946766742997873,0.09628817341009197,-0.06927248834147418,0.0948379205325369,-0.21837109170854035,-0.07276050760960269,0.3131052236932099,0.018736253739862475,0.2400388435876252,0.30438655770644046,-0.019171240760102206,-0.050130224049270825,0.10045560201753882,-0.0994871965335178,-0.024418372455792512,-0.29375030318847484,-0.03989907959254331,-0.043122396208832035,-0.056025956436748035,-0.01493811134293035,-0.07788777184926622,-0.06261927487807621,-0.12015910344013285,0.12681777307607445,0.32009411725875797,0.027434350273347324,0.12151765209966488,0.05400030479858611,0.23518215552242475,0.06065006129398115,-0.21875057626783154,-0.005555981308225197,0.05786174490128318,0.06666744969002121,-0.17026960117177922,0.11784197463212077,0.10714774702150591,-0.14896725474367017,-0.10051078030022391,-0.044120609904106094,-0.14301864775190365,0.007856667032852137,0.07628574408879207,0.0681239875664629,0.10627386547190212,0.036526424203472664,0.08488074682068726,0.12745547041352773,-0.09097510387016867,0.16681138230038384,0.021753948422674363,-0.033624774527386936,0.005778584513651274,0.0328840762015082,-0.061029567870375154,0.02399065491076846,-0.36523823186338,-0.2045709959423513,0.18184996676868095,-0.05449141588574715,0.16915949440352915,0.014351824510960235,-0.008868518459163062,-0.1674446483004132,0.274264639557722,-0.30402626167138985,0.04330172558682677,0.11386678788096537,0.336555563474061,-0.08857430904594077,-0.024398669235286642,0.05672626499837738,0.32556395180506836,-0.028904164729721377,0.14643290407199988,-0.04560850284512638,-0.059854261718905157,-0.022412220327542972,0.13306300948246458,0.2812555913980466,0.022534627060465214,0.23991759888095288,-0.058011321836202716,-0.002660061007371022,-0.06288122078537957,-0.07135846489583407,0.2662079000513711,0.1268683636295077,-0.13210461011196886,-0.073033436249533,-0.11182895660030492,0.09283078873856412,0.03606294348968925,-0.041239580700177206,-0.07743856478557448,0.055951716749804134,-0.10122905615235113,0.13516404741063684,-0.005926619334683081
wght_V_input_5,-0.10051074596586597,0.14598619896602522,0.009159452289090968,0.19475488563196106,0.0008268639416680566,0.41193237042552366,-0.27427271349143084,-0.0006685655507159403,-0.317042349487172,0.13232019842320242,-0.02405812237486891,0.13521649746857856,-0.13031087645161782,-0.17681502283488232,0.018491792178854567,0.03497906124145366,-0.32620591966833073,-0.0034829884467883943,0.035872956278116,0.16313731136483872,0.14109453434636368,0.08291915006316782,0.17674992399621484,-0.3184071403030868,0.0033471414068475275,-0.011151182218888807,-0.08914945127742757,-0.24300738416520068,0.004561630986840269,0.1692561834224596,0.0025400901103909746,0.0011947750275637012,-0.08616663461390606,0.06965331594004871,0.10295538175501366,-0.032547333154190596,0.19930179525565397,-0.08657587406815881,0.11308643994488383,-0.03289319106773712,-0.02123531525519419,-0.036819372157019505,-0.21901027070729046,-0.26134125357317023,0.21821819506361684,0.10662211893746,0.20862698512483582,0.027442883141971013,0.3417232570860574,-0.06505112128174323,-0.1114496942527982,-0.2052110239849722,-0.014534000956100255,-0.06228363745369723,0.36626827698640935,-0.20125690904398258,-0.14725463550860154,-0.17295115388726778,0.20362601898076044,0.04595452194409122,0.06299609756386987,-0.07308726568087609,0.012256584576338546,-0.07103430211062986,-0.11202591151658442,-0.27424257424239745,-0.09104330579684088,0.0809876841329554,0.13021856675537022,0.08778224546635677,-0.025030506630585266,-0.30603081959785944,0.25629956087956973,-0.10192036427011252,0.0815361101577641,-0.05154578246476998,0.2228436468407845,0.19795287427420574,0.02589519197170161,-0.27380794718611084,-0.11132873725575432,-0.1594683954337638,-0.1814783324299128,0.1441081232396711,-0.05732691401593041,-0.014343517808345961,-0.2978899027310377,-0.21921578986945764,0.16083058971322867,0.17287906395473138,-0.16859510747967102,0.15251351212159903,0.12139173694704847,0.15773068000516605,-0.07976388420243757,0.07500638110576054,0.04802956686668654,0.09407272227387155,-0.13216942389012748,-0.16581015006843264,0.1718452763858335,-0.08956728768649524,0.22956903636596473,-0.06312671167319417,-0.14648546199001938,-0.2199459422669536,0.10673586946291119,-0.14414182643862689,-0.11733565384068802,-0.048467968190859544,-0.15872852367517157,-0.06036734230298023,-0.014344592326676085,-0.1245015749389161,-0.20899976864852662,-0.09566844244250038,-0.019219626591423993,-0.0625328065024957,-0.02833878717203621,-0.23828963857976382,-0.10094272696441568,0.1594561000995289,0.1896236505496295,-0.021005416154403104,0.27498725134626095,0.013697625473637447,-0.10046946391466154,-0.25085846303922205
wght_V_input_6,0.13561564963402128,0.0003367051319106383,0.11685583069519996,-0.2470868023174506,-0.030395581999735084,-0.04401220990801172,-0.010058647964427738,-0.15527797215411787,-0.016282545639034543,0.16237431295007762,0.10713166185280555,-0.057890073032812836,-0.05687629715048747,-0.03755822672465585,-0.09096156692130158,0.3514528930068139,0.10261361653285994,0.13351823156179168,0.0777238718850477,0.10806827435392947,-0.020083029456189488,0.04126467111786133,0.12454612147794068,-0.04550782069473386,-0.0791954284858895,0.05399639278199108,0.0034387858275392595,-0.12240683473563502,-0.10121306220279071,-0.006488817929209773,-0.07527779844362457,-0.00379045950547209,0.08448449180132409,-0.024223056682684027,0.14588773203729405,-0.10260203856923242,0.16472941440359787,0.03727397154527576,0.05811197102554137,-0.10771811628124531,-0.019813610408992585,-0.07455361958268229,-0.24829812211387423,-0.025797344004346533,0.04413708691993204,0.23199128966143948,-0.1317226392846781,-0.10584980663283393,0.187639181861299,0.1458329795307874,0.0471204366681832,-0.032837321317561625,0.0614383970967031,-0.19659315999066557,-0.11823186526507556,0.006023981742418963,0.27416039144805926,0.08026962017585157,0.15048179050211766,0.18957719243024646,0.008985481733094982,-0.014780660797624502,0.06940222767796578,-0.0938897177070977,-0.01183714989409778,-0.0011629532611091879,0.12778776305990433,-0.04164625957229454,0.09247774522310492,0.24657671132959108,-0.10089587219096437,-0.12711578217299271,0.1284002533244569,-0.1528041226913861,0.06106697850601824,-0.07970456059736183,-0.08430310368983175,0.03287387042300383,-0.03938221602484953,0.13267953671027538,-0.07895826745982294,0.124268489633968,-0.035813610031049124,0.020600402065053727,0.04563875765445575,-0.061858152470674,0.2913460441084397,-0.04782237416157829,-0.12201586003243663,-0.004896099095937206,0.18770704672334618,0.13012442567726018,0.04909086151077738,-0.18869242136443604,-0.06350888324805791,-0.1423385758783375,-0.04959752058033773,-0.07205250402187431,-0.20273834006357153,-0.11623001653703234,-0.044799722445148425,-0.0804555976637344,-0.05643191932342643,-0.01744963296130427,0.15083148985858663,-0.19863776620947024,-0.10302988831194611,-0.058160742419219,-0.007558408015248386,0.26571706363058917,-0.013056089989492805,-0.13895773493680197,0.24463602078711752,-0.0685508536613781,0.07956647327200973,0.12432166110692579,0.12178540943230708,-0.2023273427087552,0.020856936774167088,-0.06804110085956369,-0.10649101777006373,-0.128269162269008,-0.1650590744424133,0.03562946748621465,-0.003649266856290733,-0.12081430410409771,-0.28117651770779023,-0.31709665615637916
wght_V_input_7,-0.13965469683886927,-0.0863522081127463,-0.06363335749753003,0.08696987281317546,-0.08311331119646277,-0.03356913038235583,-0.17537937873561976,-0.05684629802686056,0.22307816129562325,-0.3037440281362653,0.0221169344144115,0.014493064345986658,0.1942215266654308,0.05886878588496064,-0.11092061233725962,-0.06757165224214762,0.04800972891203228,-0.3415023651183474,0.23626480784080264,0.13802924340007935,0.1042627537759117,-0.04519625782254788,0.08330580728795907,-0.02414581245379284,0.13356277532371136,-0.06310419250326729,-0.1294325318058768,0.07608767064555183,-0.23757182809651983,-0.10659227534949134,-0.06277743710011224,0.20107938481882068,0.05213283888245673,-0.12422380869112574,0.1332998514033526,0.08943460959391464,0.08745267560924466,0.06217810830314789,0.1414601136984811,-0.05295070631854296,-0.1457876833211493,-0.1418962272715669,0.04303440371205879,0.11202606408479579,-0.18970378887224215,-0.07539695512648001,-0.20666724579150375,-0.11235412274485539,0.09672957549225557,-0.08903346846848664,-0.0009958190347036165,0.17010631652017905,0.21422241874261316,0.07872462505604734,-0.07163853548365887,-0.10787393276277032,-0.05612623310988258,-0.015171631216284393,0.0440283614528208,0.034657801015393515,0.04523113574673502,-0.1493182147138135,-0.0539257960526618,-0.059354017019721594,-0.1038528546563248,0.128212901186094,0.08657326881523297,0.09017050797720216,0.0588051268035829,0.36513144643653883,-0.05657697008398229,0.038136214096052314,0.21679594791613774,-0.12881395520119193,0.10728618730479907,-0.1643290647851316,-0.17274689606576923,0.01402379539908359,0.23513034459039747,0.23128635093280658,-0.046802859627283415,-0.20991710001414204,-0.009548464732032686,0.010045202398442307,-0.036953254651364564,-0.14576510198533318,-0.005882134286530557,0.3373953784048997,-0.2259285591063251,0.21304335065126176,0.034454526760025285,-0.13176513213216995,-0.010744581778566267,-0.14196587284385692,-0.027437293882113748,-0.262941803310551,0.14467757101736253,0.05599313487997486,0.18461708429217685,0.08577446332426815,-0.20176105375739425,-0.1320796620067047,0.24020639610080927,-0.04109662602407962,-0.05058646258336684,-0.13936313301729883,0.03807944859689863,-0.015913275745597484,-0.11079371328522597,-0.14145015453429516,0.1254527066981151,-0.1828704175352186,0.10993705807881787,-0.12971786147607645,0.3538771160108457,-0.23036861108743803,-0.02561420372616997,-0.04453696249235061,0.19719455913579859,0.09834631414628627,0.18968921143756315,0.1787469214674012,0.1519036721179241,0.028556808293842474,0.3017511763476821,-0.09795152792075217,-0.029371773951828824,-0.037331627058522984
wght_V_input_8,0.04702538869707484,0.06337490995115792,-0.14808133304539858,-0.0012439161548555993,-0.02812355329953582,0.27589658934147454,0.07167797750476372,0.1450710075847919,-0.06232344309643699,-0.024454427039448026,-0.2064866773214229,0.014305735355524197,-0.14551611913424814,-0.05960781655374265,-0.15189979493582972,0.20241328508962272,0.06816855525223882,0.13788759302342934,0.25762775363582285,0.1492554436716325,-0.2221503536189283,-0.10854376381637702,-0.18661933007634593,-0.03982760379070799,-0.17992323371500124,0.09316827148196115,-0.1760941385642268,-0.03511693534972626,-0.05480281699011075,0.19343524997172437,-0.07236963002933684,0.12126162437132874,0.05663674857129953,0.08864517119836882,0.009649562211680084,0.19303766668465352,-0.08066772049763828,-0.15940124143614973,0.14075703112885432,0.02738389621418393,0.044218949848154096,0.06457851574273613,0.07561896068280267,0.1598388274058765,-0.2083852032361673,0.0492939875905893,-0.03060472475392365,0.1792583856133388,0.04936289912681769,0.04453013120458351,0.009693667848017212,0.01773972321829525,0.08160924410421565,-0.05039917487277816,0.1575864169211664,-0.05625560608184114,0.02157396192471652,0.06743098854793436,0.14729811343820476,0.22347172956384193,-0.01712290187606508,-0.04655677374700971,-0.05964705437829449,-0.17022815534400842,0.05305426615267676,0.06589603570378658,-0.2390322365103035,-0.09020833347313197,0.06791194026502703,-0.193814670185148,-0.1082097825648262,0.32658495141626703,-0.08524012833467619,0.20587042121235985,-0.12668530374201867,0.1319095960618415,-0.21025780438263794,-0.06962440896923337,0.11719884518165757,0.09040361194999579,0.04129448247849213,-0.22870751566807432,0.20925617512150066,-0.06434995244919563,0.13665356370571383,-0.033689562737975944,-0.31805572588978376,-0.14632532750577598,-0.15167700909026588,0.097513304671496,0.21193996279164937,0.009180788775848863,0.004472151851823569,0.09600513543138069,-0.02809228208058583,0.04158076568420902,-0.20175205988411102,-0.24317253916870116,-0.10269508008372841,-0.11378652103041369,0.19592380554847677,-0.0558553035963374,-0.12804637271477817,0.16571359080840206,0.08594274157672735,0.046168279608775245,-0.009033355676602711,0.21249771476789672,-0.02712217220446769,0.09260244205977208,-0.0079852993802045,-0.12825266186976128,0.24221889931577362,0.22407826930933972,0.3195974910369493,0.09829669770270615,0.13973975087121843,-0.052025491372553745,-0.08602564688864722,0.03054003039771212,-0.12089674170097181,-0.011773515344457086,0.12957368746112358,-0.33419726209195844,0.1228590437454135,0.015362571951132855,0.05783345205721327,0.06970401061211283
wght_V_input_9,0.1424919169416218,-0.051844679631517156,0.2045501082783157,-0.0036964406405396904,0.038066566694454046,0.008621937670752812,0.14544828524630316,0.15173588832656826,0.0828481340662616,0.2599447636641726,-0.0749383932161649,-0.05561199658948574,-0.1309788071270386,0.15241965903606391,0.30261165937393975,0.06126166078393574,-0.04728535772602846,0.0453986128360172,-0.06469202648233036,-0.2340624309770585,0.022328648344437235,-0.12198952257019892,-0.2330513895798113,0.017420537014952164,-0.20824348834094278,0.08470543467061477,-0.03951525845654633,0.10021937788734586,0.05934595816668196,-0.033044615821223,-0.16583724518096296,0.05330941758994113,0.2546627638354227,0.08735171824412753,-0.10029700238343661,-0.08701052478743211,-0.09771620047868654,-0.021050087237972803,-0.14443083595707504,-0.09153293847190708,0.1725503561333357,-0.05847950797794336,0.05191221688597882,-0.3319619573644047,-0.0444310131694935,0.05758063255969118,0.006694716060192734,0.1457721450437429,-0.15169553905449473,0.10385132052218195,-0.13019813641031516,-0.1965081633886922,0.09685246029073599,0.1442487887479334,-0.06872455076337779,-0.06049369134351328,-0.1789790915575297,0.049471761883968735,-0.08225771715384037,-0.06727651850128084,-0.18654280646602042,-0.13958715662814586,-0.007155935341306522,0.04550406065614266,0.1560832607411905,0.05915366266225117,0.10302182851306295,-0.21007187914981407,-0.16027075100280966,-0.27661990230391925,-0.09684992145611676,-0.11709138752243115,-0.020790362743365605,0.21798792808308506,-0.07458376406465796,0.13159949642307492,0.12884166608857733,0.20331587355414085,0.11949497172813314,-0.016218666281036877,-0.02075466844870556,0.3174430586890225,-0.20002513761820012,0.02030153398468608,0.05758460102247967,0.05263442581717033,-0.03192145219465596,-0.10600998560184345,-0.1216252506868841,-0.1766573151565535,-0.015560498310573235,0.1694318105938945,-0.05676551697479212,-0.0931665918260791,0.17299166554323803,0.031217617363651435,0.19164595767970952,0.07512294091436555,0.24840207760732586,-0.20072415317991305,-0.16974179186807822,-0.11407411682134953,-0.1971877184013412,-0.2142660416754031,0.3660917325036871,-0.09698923703212597,0.18377621940803684,-0.000402550306480185,-0.044523828674107827,0.18679001306933957,0.06843848187134646,-0.0238664904234954,0.13109168909742447,0.0721468109710339,0.25331057509993715,0.11197006240906435,-0.12346082309051809,-0.07148922694880924,-0.032869489087638634,-0.09058779820879945,-0.03743982721176726,-0.06074442295507167,0.10303945208958823,0.11190335415834905,0.016796888922508968,0.1831407998334223,-0.13170407654169874,-0.03132187803650158
wght_V_input_10,0.05414386673105736,0.13792711078780162,-0.0004755650463998486,0.0654664750589578,0.0947991887039494,-0.19533283234231175,0.03123339508604002,0.24138467961621426,0.028553334701177276,0.020185365959734525,0.10278608432047583,0.17746383963537218,-0.05738337031726056,0.039685649406585255,0.21079494405328972,-0.17444888790688143,0.028856655082220333,0.025535679452560883,0.2799599951292083,-0.17429939833335611,-0.20451090949584994,-0.09393434455094371,0.02808976465050347,-0.023909957823928636,-0.14331478513211998,-0.2748806949612016,0.20605518260684183,-0.2926468559547999,0.20368118689399173,0.19101030560976384,0.09506758200497846,0.23312143026559007,-0.15908154950572315,0.06401371006235743,-0.115168821992458,-0.21928716330707068,-0.33251585117386545,0.1877096383216011,-0.025463653784593757,0.0919107123123249,0.169688692854938,0.10261862826394612,-0.15284040591007916,-0.014410357620199106,-0.10683080524343401,0.050502722729847266,-0.10803946083934214,-0.1003073632180834,0.22736600040507346,-0.11680983678358732,-0.11319585496998291,0.0036865250781355657,-0.09920210034742662,0.13556931327078384,0.21543800457141343,0.044894186983347475,-0.2918098484615941,0.011603651587902762,0.11896235647848943,0.06346334301512974,0.038747303159813236,-0.01953674838116802,0.06760540397457565,0.14609635520370834,-0.02000778730524006,0.2192257434920169,-0.02988521083250746,0.11597348640926654,0.17901319133838114,-0.028384215627321303,0.06022950711858188,-0.15704835493108696,0.051790496426538116,0.11345966240217419,-0.01665797147447511,0.11151647041182194,-0.016895940548855327,0.0541353328950457,-0.005118132569939344,-0.11630923456731325,-0.05281878054860259,0.07572423491459952,-0.086187970487945,0.049616922858831916,0.2364743445621232,0.06293849936189395,0.04935307401340523,-0.14196024912711752,0.04368533207496843,0.05723827176779323,-0.08298873828652253,-0.1742636573058993,0.016865592740999025,-0.14174671785097695,-0.14440264997188754,0.08570571867090716,-0.21356285890077684,-0.06559910030354428,0.34274691939517304,0.004500990939496607,0.19641160284127962,-0.026780501439268585,0.0865661160958997,0.0845981977801082,-0.13080743782843934,0.15198055192831547,-0.025286323961940704,-0.10536161121254312,0.1366451378012722,0.16357874969837066,-0.1360894568793155,0.09063230021517207,0.09054212285816939,-0.08469080503194258,-0.3461669298563997,0.15084684731990386,-0.12543298286113902,-0.1643000948326358,-0.2074744286085825,-0.03423318877516172,0.0008779109090317241,0.03491693887442052,0.029829883645396273,-0.1728986477026542,0.07689024832634457,0.0719869934142201,-0.06860067983841005,-0.13506037489551392
wght_V_input_11,-0.055206231034047704,0.17357954447525495,0.20459738377342876,0.13488097145189376,0.28213294730190663,0.29451041853022114,0.11768735478160974,0.2359673751772222,-0.10067732663023625,0.0505437047324962,0.10808163231587607,0.10057325598659951,0.040997357220768575,-0.1109202906079119,-0.09692510460285259,-0.27912112005933437,-0.16500418132618783,-0.21807452497556754,0.02183555453090006,0.05841832942603189,-0.1029810682467343,0.1701356859107899,0.13486642134392618,-0.03045071596827049,-0.24110713446166396,-0.05949518961309725,-0.17331793911616114,0.0038654975629713382,0.01068155072849004,-0.2570635520435784,0.01902615883645047,0.0411430798318833,0.2884111254162702,-0.23736532840568608,0.04433899128989122,-0.13780502242897322,0.13729281332270254,0.33973920999153945,0.012304446468619395,-0.08734078537427713,-0.023202900551799858,0.09325478935084631,-0.05326650964145087,-0.08322191550661141,0.1614800097667483,0.06215935896053804,0.022098321512484097,0.015400282135774596,-0.08221328432667435,0.14379820608907937,0.16299472833545556,-0.1258936580841453,0.017530914146734147,-0.1009832456303121,0.127231433009181,0.1009104953295459,-0.08505712896241911,-0.016562672246618265,0.10267325972609113,-0.13802391950988704,-0.04445510329415263,0.07205575872406282,0.2903769760247172,-0.10941183822251829,0.22889844388378447,-0.11669698447186172,0.061590743131511826,-0.10162519301283628,-0.10231643115949088,0.1421315078579286,0.0895720199618182,0.16671775327642585,0.020899504619355348,-0.17919575112506048,0.0230000494158294,-0.24847988223780884,0.03540521411723543,-0.06557535393098081,0.3132957680799071,0.024464706431066602,0.10638278702849654,-0.14717315065131195,-0.03265154684525007,-0.05951745604545029,-0.006150736520119124,-0.03593159815214606,0.05215387544355409,0.14767096478351785,0.1836224822393137,-0.1915505402997056,-0.04911110114077151,0.03277108414618915,-0.060690097262596804,-0.14617400967749805,0.05290715050111871,0.2852608059557849,0.016498377285430004,-0.04635690811323045,0.005038149093314597,-0.21233863952077534,-0.02641572473090102,0.08170026319305225,0.04210192960685025,-0.01861727037270986,-0.037318061537448044,0.06840442090247596,-0.03893432704138343,0.0718177695517341,0.09755353612557746,-0.20886590407589845,-0.007175004853343139,-0.09957702850771913,0.021073246374231823,-0.02153408975350091,0.08353845361302357,-0.12193874106943878,-0.013181928658618024,-0.01887594879729561,0.08394929827916624,0.05618372361814176,0.05121444676791451,-0.1821306735336813,0.08595386306980661,0.13889440229986527,0.04799010573236179,-0.09928329718914501,0.09709531046966675,-0.039102528349629885
wght_V_input_12,0.10462804480854639,-0.039438641106945546,0.049563092500692824,-0.21806460131667343,0.04023117675017694,0.03332590965988523,-0.16934367255987545,-0.08044186037388609,-0.029360591915340635,-0.16521436839987017,-0.019074484566771015,-0.22649498793057293,0.07493975421919088,0.02441936370619008,-0.05248531159680367,0.10806492858679434,-0.03192247820120946,-0.14102088364229812,-0.2589457585951231,0.03664031998934744,0.05084981702079432,-0.3087245953379672,-0.07777278419230395,0.03223621340478112,0.2531414793523667,-0.030417476510855572,0.0323895245031104,-0.0585777142303441,-0.04227685657423214,-0.02686407556767163,0.021790467973944835,-0.3189214271714348,0.08954699727344358,0.12836159219108964,-0.04447917988092241,0.11145997681897937,0.13518922207419662,-0.013243871621246675,-0.11330126860280387,0.17795177032283366,-0.018889780710139675,-0.04103164355076962,-0.1665551309129422,0.03570658279353882,-0.19895464264123444,-0.26089920778030956,-0.04968315796872236,-0.06901614312003049,0.2247287059636373,-0.2188902010143776,-0.08194489114887363,-0.07184491405374042,0.09740039164190281,0.09872247365966477,0.08036875240636111,-0.06294427463219589,-0.22301327616263458,0.036425012271310064,0.27022748694024623,-0.03405658110098405,-0.02244522353584918,-0.2164877391287501,0.08778464348302151,-0.07780603176302692,0.009558781944203489,-0.09515475138930726,0.0773671664837064,0.0008430206953199765,0.11635769548901259,0.19149995491528404,-0.17606035893371239,-0.0366934469131136,0.008123970844810077,-0.07957540463053499,0.02325878119659066,0.11410352613956859,-0.2109067909654307,-0.17864335085454816,-0.0375370319905939,0.21300470508928881,0.010085432756424643,0.24577341796528698,-0.012003346856918281,-0.022585599228888184,0.04825499528018589,-0.18521412670421541,0.04731514427388239,-0.10156261241931556,-0.27884797312585974,-0.03462337304191408,0.11354112199225626,0.07117540354288839,0.07904148935524438,0.07329059231316803,-0.041031643613379166,0.027426184738185942,0.10876279598644081,0.11286276091426341,0.0764681908668373,0.006433534156485539,-0.05985929852808406,0.018126332378326827,-0.16054660535326976,0.12128393295649391,-0.05865265316868166,0.042319579743565414,-0.08566139134132297,-0.10559963853476138,0.06096616623298327,-0.09343691034297204,-0.047664859860854156,0.02536935393182326,-0.0756608623030907,0.17904236228995968,-0.009881239823498063,-0.017721368534805947,0.11220984036881111,0.2730670845573488,0.06283305826801888,0.044792874190467485,-0.033038631033315,-0.07980356075527201,0.2949673595755395,0.0009674721728510987,-0.07960041702188653,-0.12251399825505557,-0.030889935163105963,0.1636999256481686
wght_V_input_13,0.08281694345565284,0.01703393967736953,-0.023413777863841627,-0.154715912927392,0.22151181625760893,-0.09540668734321628,-0.07272032090547455,-0.0415363022458409,0.016572937395458422,0.08359840148999098,-0.3240484574658001,-0.1031688772229858,-0.01971486498425202,-0.03781889311249373,0.21184908627489804,-0.10343141411996055,0.04702232484249817,0.0398100998229461,0.1564510475914789,-0.09818746809747018,-0.06305295306028574,-0.11396409850046176,0.15113710420850268,-0.16920540747677895,0.09152426184161151,-0.03694532087923355,0.1322799021154375,-0.07220883802190718,-0.13759456787997634,-0.15080244993841957,-0.011668161200215027,-0.07131101961044396,-0.11700686573398746,-0.16105990076314572,0.007024796269250526,0.03506238830275215,-0.26063192275464564,-0.39666046550245976,-0.12181305373153299,-0.04556506721429134,0.11415343502925994,-0.12163788799303946,0.08193233229503956,0.08816536150064086,-0.12403076678261754,-0.1790097904721831,0.011284007100581396,-0.18716983535794623,-0.05210806513673575,0.018096182263372323,0.1780653658275953,-0.1743974678992145,0.09879007622807337,0.06822132752752344,0.15594659914963266,-0.06455866570715425,-0.10130596218801918,-0.16401997966947893,0.08965880295596398,-0.02425693898181393,-0.21777963135315928,-0.07336204309466123,-0.21570114456796455,0.2675465364596392,-0.05869617022666802,0.1461425691978599,-0.18872948239214177,-0.03634000594566179,0.07514552744404303,-0.1415517212572101,-0.09383077642442125,-0.008006003166614723,-0.04557169915264188,-0.1756215196843435,0.20553681413055844,-0.11479893280646396,0.3898884196461651,0.0695235704422371,-0.02298338941464844,0.24101070991461532,-0.18623242624366426,-0.1609225598968739,-0.06385348483419491,0.1737324373664401,0.30574177878397335,0.26037197459293493,-0.11638170056436034,-0.15680064275909605,-0.04562571771288099,-0.18707301549254382,0.21281035530776002,-0.1763882655813183,-0.0513249192163827,-0.03490439981537541,-0.24013082413298767,-0.08937049450349895,-0.11568976066706156,0.28400957174822616,-0.02877942938089824,0.01928960111582005,-0.05426870564254181,0.13010379145594644,0.10783742375533298,0.212855746091421,0.04157048000746013,-0.03884515327915328,-0.20051061356029085,-0.18975417709147804,0.15334095826106198,-0.09799692056838011,0.17374708895240282,-0.12105688662005436,0.02186293735716883,0.08260437878350824,0.053559500432040316,-0.2961669121826487,-0.1956561461300457,0.03797177816950157,-0.17631342528811558,-0.16170374018221462,-0.10261045342289997,-0.031740794960296956,0.23979541657745396,0.013386106490601223,0.2122797761737786,0.017098385670444676,-0.10866432623427431,0.0509543571926201
wght_V_input_14,-0.20516291841987838,-0.21469166949592028,0.2882496810273203,0.016532821717591708,-0.10989339448123077,-0.414857472303413,-0.3353725034056277,0.16418411470713545,0.2882225149995197,-0.10832502555827603,0.0660853187142824,-0.1810929782838664,0.0033769842088700007,-0.5223823749438724,-0.002072126256034444,0.2048258121828495,-0.2548652661318017,0.34376507965522113,-0.13740230451180246,-0.004119143351544165,0.15494540163132403,-0.22652376451173795,0.189634370571366,0.0958361639508298,-0.11622955906924655,-0.1666093523060102,0.056639772231309025,-0.014301092166308559,-0.1538671929106622,0.034262471120810205,0.04047840331094235,-0.23581960654775175,-0.08196167979467564,0.04141546290848725,0.2439528093585413,0.18618255302798467,0.01640903525379304,-0.08195567434560158,-0.025156868685040683,0.22988936194297876,-0.16511063848691215,-0.05116840148392335,0.09903033267307877,0.27351664019514854,-0.11286661710480526,-0.023150205566207213,-0.09620263375347732,-0.020971379357338733,0.18297839071855332,0.08119864293480483,-0.012999510621047957,0.024449075131637025,0.11359224322509749,-0.39290603378290834,-0.014146603149817869,-0.175018891360339,0.10491274767900026,-0.2596671861624126,-0.23303735506163348,-0.09672247624147014,0.0813241743503781,-0.08286098933231244,0.19805137274204668,0.1796610669458623,-0.2725567695504981,0.4273458153849861,0.24214261471824003,-0.10197743130595423,-0.138201279161754,0.08990196121471063,0.24641028831900746,-0.04379416169927163,-0.03971309342729175,0.27566738059753587,0.1374771825953404,-0.08813489894949225,0.07683226129554327,-0.2463033785080223,0.026616208858367213,-0.12391500578433087,0.08556143914027316,0.06126379317385664,-0.2692026047482339,-0.05446863510175392,0.2837076054976914,-0.08064318680561569,0.13405180364651134,0.0991883322443227,-0.02385994303183048,0.10209823740113827,0.09497917821556932,0.025089140378405254,-0.11213055320868867,-0.10184640002465321,-0.20707331267986345,0.1786382695415542,0.05975564238128773,0.22756626085503667,0.12735188850490398,0.2088498854032562,-0.09006722776092416,-0.17857938167208118,-0.3479893822652348,-0.06497371053519903,0.23128353776412444,0.03483750888652506,0.0634210843492598,-0.18894950316746467,0.204256404882906,-0.09782752701644924,-0.056590746636206765,0.09494314125824901,0.2211859018371416,0.09519667050088308,-0.10273366207981159,0.20277697403468462,0.030185112003039218,0.30767211354503843,-0.2691801280816725,-0.2884449966494039,-0.2647503188666477,0.013501622979416731,0.21220237766179456,-0.11309749926324972,0.0004295551819503661,-0.02809771005013544,-0.10540049429152085,-0.20478216761568943
wght_V_input_15,0.10655801711313728,-0.1622186223940462,0.1073357697294859,-0.08468968419661416,0.05680921719188767,0.12843437314507497,-0.28277945579260083,-0.14521870729097203,0.06460387160132326,0.10102591618699076,0.17582762121806614,-0.1680186151005033,0.17575871642327434,-0.2103053910069554,0.1381249852288885,-0.2812428969112882,-0.3498751487662835,0.3441741889086952,-0.019712409892149473,0.20340339179300604,0.15357346462759663,-0.07192773794564829,-0.07808540398111986,-0.11788665110444561,-0.10383362538171234,0.14431390965152338,0.17036261451138798,-0.010172497022279731,-0.12997627504131978,0.04842091502526456,0.17439389064986058,-0.07841578991836685,-0.11858965232603375,0.11327633030814425,0.11738501941174966,0.16016037397837543,0.3714226819512708,-0.031764408685695314,0.15024349540154244,-0.15689392845006306,-0.1641718994004786,0.007887718650633231,0.267431232813167,0.018481974532989404,-0.24563500866443863,0.07595076636470904,0.4674292329968042,-0.005476776386414744,0.24213246281783954,-0.12935083163793246,-0.24047681499459211,0.10457411614978425,0.2410590298259979,-0.0014010063364159313,-0.007993679260348873,-0.2945568954497331,-0.16893079361857744,0.1366406074420484,0.024271598926868337,0.06353616398063064,0.01538886860560237,0.25117803770012237,0.10856125099728192,-0.2658564490198682,0.04545591748971653,0.3975699835277918,0.10451322890677575,-0.2551195872698267,-0.25083003420083455,0.033276978758196164,-0.08123579551677053,-0.11847612874816198,-0.0423434039962104,-0.2634970974997375,0.17953705795963043,-0.16176293617566992,0.09629180856276719,-0.11466951360122705,0.06970903396898277,0.12278592899945738,0.060406348737397496,-0.31983504601681845,0.1025077859154585,0.1174002926469,0.33535062347559574,-0.03467958318919436,0.011257224813957608,-0.16651501846636516,0.02295062242585925,0.10779444055279554,0.13521874146519247,0.25641248809037787,-0.14951511821368754,0.2146365363711549,-0.10527543992062348,0.004724994312226067,-0.34225996766630556,0.34497705535193496,-0.11758034675504352,0.14660469146497973,-0.09679717528402404,-0.1068796707358308,-0.2845944379191942,-0.08758844595298741,-0.013753812889982255,0.3391779185554037,0.14248480806948483,-0.1418016970710578,-0.013323252712430194,-0.12569909757458736,-0.025309917008146745,0.059448982894162505,0.2776611360614062,-0.07971476390519208,-0.4182154604465194,0.03849649766022357,0.032060148020870614,0.10695441731190083,-0.48232011220462984,-0.11883550494317237,0.23527751068458064,0.06342072765343067,-0.03992487457624835,0.018450494964290482,0.22497721042466834,0.05625643882950615,0.029388243771031417,-0.33876819453750706
wght_V_input_16,0.2935775926465307,-0.018401990823582962,0.0887833493495936,-0.06444554421160217,-0.0029871072269860867,0.3158665597785842,0.09010119493310657,-0.02293210375427715,0.1897416130777533,0.007535888142295336,-0.057769098496748286,-0.023819009792409966,-0.22826860022243636,0.19555915539905624,-0.06422600654873352,-0.12938240653028463,-0.1727270210341828,0.20426154473086364,-0.18663259385595984,0.2621447017695686,0.18025003922051272,-0.03611961591472844,0.040375632339908825,-0.22996432508168707,-0.04111421742339429,0.093424672957858,0.1618997972397556,-0.020637219737186203,0.09713105407720285,-0.29453103772122236,0.03574308733803204,-0.5080382334265624,-0.12239947641225518,-0.05523392742127927,0.21499391319318747,-0.2460740993934089,0.12458627202163028,0.36364526732143626,-0.034412415437748374,-0.19311967326553772,-0.15864520743295024,-0.17462608096090737,0.29648939764378884,-0.013980420851233551,0.15210923034508236,0.22368531273580966,-0.09394371518331834,0.09478474274582735,-0.16919873318089637,0.12372804693753787,-0.15257454814748905,0.2316220332629158,-0.030928911058755875,-0.2799562525132443,-0.020186363294610037,-0.2987384611235315,-0.10015293413251727,-0.1335562739577725,0.3263971090858563,-0.17712482041585645,0.08141522761457999,0.4089018609583945,0.2778682283501786,0.04836298534678495,-0.10134838705167545,0.46334635243940325,0.25853476688231597,0.2254710784585028,-0.30401573626845396,0.0971839728150766,-0.06492151468631993,0.08687466669160987,-0.17277403559522478,0.0850417432898666,0.03850350420633223,0.0022191124602163443,0.019819668563546968,-0.3935979893532974,-0.18906948769833465,-0.14323618841054975,-0.07489508082325567,-0.034720411235124565,-0.09024155479608943,-0.06103732774755707,-0.016702402051509854,0.2788710561353823,-0.013951485101709116,0.07269197395483301,0.23169693576013325,0.1818317667867729,-0.0019655487271085102,-0.0012257787770929367,0.06392987557131705,0.05304653654177136,-0.23475985366409766,0.3655143950795727,0.342071862998477,0.014847153058757542,-0.05128912037280616,-0.2724884389587756,-0.03182735856034307,-0.182481110982477,-0.05291207713160556,0.09460017522019867,0.14724693673629988,0.19642669270908497,0.31338821075175466,-0.09395096307924809,0.09069281179501933,0.05181112122570454,0.2085486099248374,0.09160747027196477,0.16524040824700698,0.0054390041637494575,-0.18360712707654495,0.04351343125095572,0.13794596132904133,0.0082043430581176,-0.3301087074323097,-0.4256612589037867,-0.18722438722903367,-0.0833561281311004,-0.033422608866340034,0.06487483828788826,0.18690578436969868,0.11473305363656885,-0.34308631121690886,-0.04671576925095152
wght_V_input_17,0.09733991863198467,-0.3333203692423499,0.19718462438133016,0.028850005534274272,-0.26964803017601746,-0.025645058436584912,-0.014327810965132616,-0.007463350918110688,0.0933680812295405,-0.2512108320714132,0.08979467738986532,-0.04251585997063475,0.14841296768936788,0.3104038634142091,-0.14120885870749392,-0.17372069545304436,-0.0038286168763852608,0.232991312714081,-0.14717057723325125,-0.07766181301080141,0.07123390504320291,0.11378442315518028,-0.021442418074049896,0.13859351159357408,0.005636150810062863,0.027442655455591446,-0.13992353223857643,0.24458349120182787,0.15365147077778735,-0.3379093703892124,-0.03932416571261431,-0.47186267384812614,0.159626309784972,0.06191029637543775,-0.03864615296634394,-0.21732540675294934,0.05425127741021188,-0.10431598009168301,-0.024604955598804042,-0.00829843636470173,-0.18241311975313299,-0.0754242280054659,-0.023001695215020202,0.06112368016024675,-0.2529736952986155,0.08993814684373434,0.018141264273835004,-0.004353747392970854,0.04249404830706536,-0.3600669208061208,-0.056071980802965986,0.34692549073405593,-0.22016979434269307,-0.336835603973659,0.21155895724457047,-0.17136797793710407,0.09406234243509715,0.16565377052242433,-0.18795166947237754,-0.13291383945658433,-0.2048474154185556,-0.03616879328339683,0.2755315699242439,-0.004578780713801783,0.1325830306003985,0.1980448695966797,0.013751031360502606,-0.020347217820241768,-0.02007789547421972,0.022772798566090515,-0.1200611794750281,0.08092262444669313,0.28916619903576346,-0.013818235943830014,0.2328594007696443,-0.1224433595039648,-0.19909181488271568,-0.1551475247914907,-0.2111955460660759,-0.18992030827562054,-0.02636713338348114,0.1604193400522482,-0.03181657206296312,-0.07243406517376376,-0.10529206562978714,-0.101217494857884,0.15867949004512058,0.43318419368898353,-0.22865611138731012,0.07324222433377386,0.3401626186828731,0.018060554522178664,0.27172970002261226,0.033616391843835955,-0.26735473295438766,0.24758325123871205,0.20915143241483572,-0.5839479909372504,0.17623730077824676,-0.38371666479133015,-0.09034686945931719,0.02159932484527776,-0.022466912649521158,0.32489053618999103,0.12136836903158425,0.14445033201492172,0.26671727913673565,0.12166872397003718,0.09522353213324776,-0.044838545446183355,-0.20121223778438876,-0.11578798028282768,0.10919834128521994,-0.04530493617833682,0.036042496377670395,0.05077522981430936,-0.016648826124580445,-0.14406519601524365,-0.0580119797793668,-0.11316236538844193,0.10614348269377474,0.1383951929020084,-0.17724478404473518,0.1690387793928134,0.31279489110746816,-0.11115567520635342,-0.13999363292653996,-0.061098118496581255
wght_V_input_18,0.31861249619263166,-0.2812374282340231,-0.014136654456498912,0.06516347919051026,0.0067934306462435826,0.10820085736151981,0.2905277470046979,0.29058942790644615,-0.30025617603653637,0.060169303794692666,0.2432791216624931,-0.022863368867186314,0.04811106206846617,0.13370421417797795,-0.30557087533124105,0.00852952745550776,-0.1378930575981491,0.08293768149973056,0.21734078830739806,-0.014319261347571784,-0.20474735118079274,0.17150034224393168,-0.42199317499697836,0.15118580015605174,-0.18136203538293513,-0.030408101483700337,0.18007305945867064,0.30499407972177606,-0.3558112438288758,-0.2279274127663558,0.2754121743649319,-0.3758706148105545,0.14266862184723778,-0.060956225752840265,-0.06798558952336066,-0.11212986168217812,0.12354902534201007,-0.20683851614883722,-0.056712546008781194,-0.09969383496978387,0.01817910780908227,0.128515273527436,0.09326913878191845,-0.11194951715487021,-0.08363938695405668,-0.06964149914267374,0.08424311517760162,0.10166053893730956,-0.08036640796843987,-0.21377357677790276,0.1347057582720172,0.27807319199559716,-0.1254527408015573,-0.06951203043465076,0.0708407393768576,-0.21582782273267226,0.15993961659180106,-0.1395009415856532,0.18692863954542263,0.12662118439631578,-0.015334044001988699,-0.23740101498297014,-0.1596278653402005,-0.07675572929379738,-0.018918801596527538,0.20229980009611034,-0.0699073485391992,0.09392837100405464,-0.08310663862846718,-0.031466761428021045,-0.17351111634103827,0.020515333833893055,0.11526295171886691,-0.07635223398946991,-0.12096667361459422,-0.014649504190861052,0.02332285232122081,-0.1157795210421954,-0.153742021353068,0.01786554406331896,0.30342574195691985,0.001739858449182412,0.07225165026557812,0.0019053729257919817,-0.24558346566482211,-0.20600615422402763,-0.042178376692025996,0.09521878685684732,0.020724666954095784,-0.040014955049753685,0.17039033269447992,-0.13887093007285195,0.0405178283304822,-0.06439753027729606,0.13994928665406534,0.13519709206657327,0.12520525586111952,0.17493803007069106,0.007138849494548809,-0.08401247433782563,0.1750784716267806,-0.15108941973485068,0.2165984714418414,0.24969438444191544,0.12641377743340323,0.18920793560796234,0.055878414801229855,0.2777987428404309,-0.0073415007889542985,0.04328855532531853,-0.0742919588137048,-0.1695246402325701,-0.17226831887927935,0.3334682844424009,-0.14035784800801918,-0.10035694478282775,-0.3875636911717343,-0.17639703816372443,0.029776180964871057,-0.14908279969352672,0.07811290132031755,-0.0014060134778074167,0.0045229101211485,-0.13952823686855903,0.10246793512687694,0.04332906683135482,-0.268965988926443,-0.029942847062481723
wght_V_input_19,0.20225225157546506,0.10010605562968697,0.05806433866866089,0.1573591514041357,0.0958205078467238,-0.09947543981162688,0.119677196612455,0.1896199951243928,-0.035767179522319933,0.15095241864341696,-0.16017195825933775,0.03376927422988616,0.02598608996052877,0.06436572677409756,0.06089591873060357,0.14731420883618418,-0.09274147044322661,0.1159733679563326,-0.13863686570115466,-0.01651037712516024,0.045481867594347095,0.008832458345993182,-0.15976352206942745,-0.07013766535606197,0.20799957352965015,0.05476915205547174,-0.07577975105052376,0.06466405528993693,-0.2671705137172509,0.03577886204461019,0.01576354466319495,-0.0033280690130934243,0.1870323576765718,-0.0565447928525635,-0.1704782793726009,0.02486535365891853,0.10025526135004709,-0.04098180966012044,-0.11648078836286598,-0.03751539182400258,-0.013899506601558675,-0.12742847913850447,0.20085893159750867,-0.16595167269042715,-0.09222414819176177,0.10959344475873485,-0.15936800318711647,-0.008252720386471625,0.0628776927337305,-0.10066758356189776,0.03598828965543026,0.12423272103015506,-0.1315833435116858,-0.03352423717623369,0.3182414147097033,0.004711694132114017,0.033484831232166556,-0.05778185847593037,0.04635935903651325,-0.05521578058301625,-0.24891349794887196,-0.051360141150966605,-0.06844371759107357,-0.06352129018511776,-0.12154702497432392,-0.07894716820052368,0.08508972225986527,0.14902198491997504,-0.03051800275135008,0.04988780709265055,0.024308551273088008,0.06346959426472296,0.11503371229897882,-0.10774620834551296,-0.13382810956830815,0.23427672343395736,-0.2959137894864242,-0.0837009329080601,0.06643956083415731,-0.019414956633139663,0.10898767383439885,0.18339563588441696,-0.1739373136864288,-0.05155963736128902,-0.16154290041583558,0.19159723861933706,0.21989285883826176,-0.05702470715626955,-0.07975961221886728,-0.05952885114706,-0.002666573288655377,-0.10036194716373929,-0.10407033091516377,0.16121857241740806,0.26296524138037525,0.24419667019332567,0.04290205511943759,-0.22262990772547894,0.05311274516988935,0.03751394620095909,0.02959219216226238,-0.1639830978131049,0.12456842348678493,0.13022020268523027,0.07133426736108821,-0.04958496865306987,-0.1689299074651555,0.22434073710733168,0.022799435000315893,0.1237654270364932,0.019780875484489816,0.059702925749460144,0.07134313841945428,0.05958385671714634,-0.05409592991315227,-0.11145468605275266,0.03321345223713645,0.11801782911017972,0.09167180016849118,-0.06432008260480314,0.160841937053467,-0.1275933627813722,-0.09506576671213264,-0.11238857692715067,0.015235272324188214,-0.07633386345680238,-0.20664953476428505,0.18151439054854265
wght_V_input_20,-0.1369646303802708,0.49704752058626345,-0.21734464473474183,0.03436225984603204,0.05581382314428001,-0.049804676608302276,0.07117795183027067,-0.039351651376260524,-0.15116755978459467,-0.09548664373893098,-0.04478239766938124,0.08550412754491261,-0.04954058639722651,0.10803792003820989,0.21009974153511835,-0.20524340986219322,0.013694740848788408,-0.23610143476982742,0.12626803053841765,-0.07942073060737113,-0.22300171397614463,-0.06516015489409145,0.03741432841411092,0.16627130664637216,-0.08869433108469488,-0.07285501810376312,-0.24235255801007613,0.08389495317401673,-0.1666227878159972,-0.24327016254244407,-0.019792421901456525,0.3460788153337599,0.1524005381807653,-0.05058383954430635,-0.06622037605389587,-0.25717801402168067,0.10099628408468617,-0.19282520904697228,0.2863249864962975,-0.16941208286375223,0.0009324053761206914,0.19094912472025125,0.14737375947322842,0.1403015029542424,0.22015269791156697,-0.188144049266433,0.05296099042899931,-0.12067042837095951,-0.05577817100709766,-0.013750078121084435,0.025943838820884472,-0.19272818776290052,-0.06859395068681091,0.16105408237366872,0.05101540807717828,-0.103703625163572,-0.18018683301057206,0.021906971600559058,-0.2977278213812235,-0.05577780919507861,0.15181155875079747,0.0454370710308877,-0.08117909944260933,0.18982738932906362,0.0251478224576439,-0.09719353815141428,0.021810244753196702,-0.13077615973237494,0.03599982986749684,0.09878292652987436,-0.09646286421650166,-0.03281823380477978,0.05403599023410065,-0.05134967255162264,0.35333260837031044,-0.09443758408986522,-0.16419961045449022,-0.14935081927620625,-0.15999888418400285,-0.02492536153234622,0.032780450658706925,-0.06563319103716586,0.0018202291157731908,-0.11643021998147532,-0.14908203138367998,0.10076929459087641,0.20581967248874847,-0.13732811264747996,-0.0355081530957124,0.1834471162773104,0.08735990985612868,0.1403650750910213,-0.10939158140643956,-0.035049826030041725,0.21690611755591652,-0.13166561576146754,-0.14432046276235075,0.17038391081700208,-0.22865632960371773,-0.22128048243893034,0.2087509548519936,-0.06882570630869472,-0.11009247988139569,0.0838907060977736,-0.11562980475964738,0.1134681531471763,-0.21283653982888456,-0.1758022341676127,-0.01389180949876694,-0.26923849516847004,0.12670146200481971,0.012082150718673327,-0.051611299415334905,0.06227841943758871,0.14671069472800116,-0.18667581094954153,0.03781370884204575,-0.08124879866153199,0.08168810451315467,-0.05721893542427725,-0.07550801732976996,-0.09054754309559336,-0.038889437939405844,0.004004389810061891,-0.0657372596490509,0.0594895526614264,-0.08473961166156152,0.18555990400829636
wght_V_input_21,0.051978392954420756,0.011254902581628593,-0.16894932416327568,-0.03056700472168018,0.17177503326097368,0.20233550135452302,-0.1879440708484528,-0.2889784133985688,0.1434759945956044,0.10034599522923036,-0.09993845188396173,-0.0654080199006267,-0.012560001056502837,-0.18487117152464874,0.19105798667237286,0.009799128549576121,0.2696742765481606,0.15021996936278925,0.0037468132010989607,0.09655408987635325,-0.10694966760258591,0.05867501482553285,-0.18399622768816148,-0.05886391851320038,0.2646599877712424,-0.12942588710345115,-0.031046520130859647,-0.21639949004750825,0.007282948588630847,-0.06133506002536148,0.09575741939426263,-0.08390065935547128,0.1383111316956585,-0.06180861776013551,0.05268944246258916,-0.020157157045212912,-0.0868548447010496,0.10911644330333663,0.04080051661122742,0.2187317277961887,0.11837353832510483,-0.016929314743410355,-0.2627367349992013,-0.2082214200640911,-0.012059189893527672,-0.22316391356262522,0.2764624700549876,-0.08173312471268519,-0.08709197246233533,0.06052962157271042,0.23698801354625232,-0.08657252924968453,0.05500489054888963,0.25549554287058446,0.2830820615454715,-0.1881217707143571,-0.11050859688916152,-0.06545755220479217,-0.023540171358257953,0.1382952198246796,-0.09265621475063861,-0.02645509978085124,-0.05827541226909647,-0.2600874017597128,-0.14858513718727534,0.09914704298145056,-0.13348962051785937,0.012873033710099657,0.01361397085858654,0.04264078874839972,-0.13762503316887464,0.2524778678493453,0.03192488416532113,-0.06153008959792991,0.03596892027004604,-0.01778900469361713,0.21847905266344544,-0.13772666346131474,-0.17699275181874655,-0.2839736456997044,0.02496734277487268,0.17723876191922175,-0.09532940302808861,0.0031308698029682692,0.16126135040838765,0.10507652004919749,0.209083969770621,-0.1118561740267134,-0.161236737007069,-0.06648989647489326,0.18217868466104373,0.1876510271829128,-0.10393418971990605,0.09601056810106555,-0.26879562435999005,0.2746096413775259,-0.10884454581772038,-0.14519719943735657,0.047131329777880496,-0.03712646720548636,-0.05482129859697706,-0.23179358573565717,0.277242786200318,0.13174133328132015,-0.04105210011735931,0.10108956153431074,0.11580202710320538,-0.01315700965111451,0.16299786415313927,0.19811030708338917,0.06770799276784127,-0.033152690459525236,0.06529584526093786,-0.014078360263383998,0.21295578676167556,-0.03719820049978378,-0.12864405196328546,-0.1022801972434579,0.01664881348394838,-0.16938287663540835,0.033307495060905495,-0.06415351912025716,-0.12071863722299603,-0.27964759523162275,0.0368806291319824,-0.012856706516020042,-0.2115443588668111,0.06776659694764899
wght_V_input_22,0.10463753951421453,0.020700052997051816,-0.00021585540748507534,0.03409609348340782,-0.10063886081746906,0.003671178394656404,-0.022891021925623894,-0.10662795506144629,0.3038169669827668,-0.162967482955386,-0.2263146117798584,0.3573196046730766,-0.16797085609264553,0.15361706188896546,0.009103676177845481,0.051292836101322625,-0.17512162891493047,0.023426166362909947,0.17519740013972593,-0.3262160733946736,0.22166789566853565,-0.2888902310402873,0.13030147052005348,0.07608175739469902,-0.13124962090833525,0.1262150171794583,0.060858818742015014,0.037669982970923166,-0.3436709903803742,0.05584057115905117,0.17761925421667993,0.013334753250275045,-0.11177113353250157,-0.08638978183807476,-0.049089690069277644,0.17471467530170193,0.06686351985649282,-0.15698804245955206,0.05587946317696769,0.05348226530808056,0.07599188440458268,0.043581345432243165,-0.01159745810450958,0.22811730678873937,0.03703584316012646,-0.08726779778893833,0.0796871919612041,0.2968826425005341,0.11754493638412282,0.08127113012442234,0.3522673810914898,-0.011922397460789685,-0.16687641752411378,-0.15749731362573435,0.05587704340712534,-0.15924655799367224,-0.29848641832256767,-0.00022450619640777348,-0.058588782491729774,-0.004584021861307503,-0.17738348184525274,-0.15973303835677613,-0.20839803282189312,-0.11285067169204457,0.2634822602522971,0.2455900178721086,0.313064473576374,0.0673894096494664,-0.004283214771971849,-0.08010890929847754,-0.1228079642222015,0.05009367202911706,-0.25431170174535594,0.11550172170269052,0.06511006721850975,-0.012047899730836654,-0.08001644094050635,0.020934840837477858,0.23531951670092502,-0.0789881836653333,-0.1424232141307282,0.02782894480964283,-0.10322744877744221,0.09190567139204484,0.08914075048863039,0.05945867461838899,-0.09382516505946165,-0.10130759032166796,-0.07797871756542578,0.02401675594549635,0.11078419278090403,-0.06618538786828985,0.051572516183328684,-0.08656547695788466,0.020187489522628093,-0.06901717854063472,0.14580778919431842,0.13343272211260254,-0.15982106603757454,-0.23345942433857775,-0.04457734795773593,-0.16236330564748513,-0.09847065758567128,0.17894055546215584,-0.09607652182087618,0.006914927276788484,0.15329023147909493,-0.21941244679312322,0.06819860915246143,0.28729638085682724,0.2398143828593313,-0.3086588217303946,-0.17866443305164642,-0.1723409897051752,-0.2432713144339271,0.018055165229254197,0.12467526095305662,-0.024785033712707846,0.13356642068966473,-0.059062101897843916,-0.008650477265178706,-0.22473835313082438,-0.09272795994287654,0.17768013792178847,-0.23643237222219604,-0.24691059354671,0.2071317867281764,0.1647674711460218
wght_V_input_23,-0.03121092203895804,0.11137124381621541,-0.12613883536160642,-0.3449410637914951,0.10251874775681927,-0.24995161863267124,-0.0003214794653809315,0.1029219607567769,-0.12165201253172335,0.16521638516933268,-0.19827336499820591,0.2119577299807532,-0.18088546027029298,-0.2590236192491018,0.3133023659906727,-0.06382374365464144,-0.1371758025767047,0.09559031213274234,-0.020163089888980384,-0.03667795098362951,-0.042890421135184445,-0.2954136181595334,-0.0831575214264549,0.22271329817667343,-0.02289660777569962,-0.06731391312779812,0.06290237232933212,-0.158102571919033,0.06855093369952453,0.11648060538895642,0.15093495148218727,-0.0993745534500278,0.209587695907139,-0.21228699910125018,0.13544618094525426,0.10752137377799069,0.12178339809756206,-0.24581929652550066,0.1553369929737941,0.353891410723238,0.09368088980942726,-0.13608237745101912,0.14144430303189748,0.11048957996479854,-0.2691066416686299,-0.011538606043126088,-0.30389445379909014,0.5151651337675407,-0.06249458763882616,-0.1605620090606874,0.180734658131233,-0.04200574480742125,-0.056401245582632015,-0.0341382772033594,0.00031067075031804975,-0.21307924067299988,-0.024047270157362657,0.1070280384467524,0.04789918320569075,-0.10791101418952725,-0.18787877395679595,-0.16411992272538287,0.06043615539831646,0.19908711487507275,-0.0033839297987898857,0.077761256954109,0.1166735688952377,-0.2772847375484497,0.11324012842682325,0.05054489064357232,0.19942520236410613,-0.0584405005045513,-0.27902710056998914,0.1971866627248194,-0.011787336598360683,-0.14170569761847954,-0.042610302367695,-0.13693688657436986,-0.13594079555159744,-0.07033783395046649,-0.10319349519638438,-0.13327996554479313,0.10237027701072088,-0.25731464389163816,-0.054336932826089444,-0.1568763087582107,-0.4228257126676124,-0.10238096768156851,-0.013689986367843361,-0.14905028651401822,-0.09002213062102575,0.19121363082169474,-0.027063190337889457,-0.018421914147413194,-0.13457706893677096,0.0896974421627767,-0.08358537353759754,0.04762742891311236,-0.1452313247047581,-0.05712733154316196,-0.1655985843232347,-0.23259187111935317,0.005847870837815546,0.24329935295823463,0.17894794168224554,0.03827585854380751,-0.015466045849329507,-0.278176326176709,-0.0799480740153381,0.4108810836538839,-0.13755891175465587,0.2900575407635391,0.018814745390025464,0.19543665985571831,-0.47061253290657457,-0.0927884346174347,-0.03449989272033398,0.16969134254765358,-0.1364329573951078,-0.2909396737914165,-0.06468428039882546,0.04820174369013219,0.06168830202892477,-0.17202853425773304,-0.04005267382128685,-0.3208020811925633,0.21500882147362155,-0.0875543856537552
wght_V_input_24,-0.23562947293331796,-0.3166626177270795,-0.3558405795182401,-0.5739595759777453,-0.07093337552567841,-0.16499534335558474,-0.1532126127291074,-0.22320802962926578,-0.03847153622267318,0.08957828375003966,-0.1650188917377151,0.4481448558088217,-0.24684565515205162,-0.08165956944836997,0.32800960042384925,0.13983495070024365,-0.11981389884015939,-0.41234890307676475,-0.041392723178296655,-0.05457541756032302,0.3411395314656975,-0.13389083688163803,0.2513739593163837,0.02504066201404881,-0.12667199632654955,-0.19608675674111833,-0.17389402709545126,0.05922028538132008,0.04815339549716697,-0.25649917089066154,-0.3137002193206059,-0.0708916496107331,0.4357747244211126,-0.3628129715502367,-0.007897876057918383,-0.1401222462302115,0.23443904533419982,-0.07566888867146682,-0.15379892785097501,0.11444042079652907,0.2971872039629706,-0.10587106886747365,0.038764133250625096,0.01637707388166472,-0.005775458781290037,0.1355612357076099,-0.20176092680698002,0.5387410511325992,0.060606450458911956,-0.17750911046671125,0.19582687520225714,0.19497130843083083,-0.022581929068843636,0.3007194911571132,0.25055735675294205,0.17510099845299681,-0.13312464949264735,0.12510571361949804,-0.1185502872908445,-0.3506512723757619,0.03762831944936668,0.09408747119116911,-0.021523252601457616,0.10437371588717198,0.0909049887070966,0.28949117817935016,0.28765158852739736,-0.16618666459277256,0.15846805570756625,0.17126342996576457,0.005673378115358512,-0.5179819622880405,0.08106273118503242,0.5735739601263449,0.18293175206742596,0.06524573689730223,0.035362307665055354,-0.1758079407632044,-0.2603034590819596,0.24973275256174807,-0.11845524271786076,0.022594743314241453,-0.2853017847930591,0.1510237448483961,-0.014765356323770601,0.16468514903624898,-0.4609975955571195,-0.22121653685573217,-0.06688698526091287,-0.2145657132785125,-0.13927096954904014,0.25307179839939575,-0.06646550712544164,0.4082779910754835,-0.424620465475663,0.1834706684092196,0.05807298874813963,0.07039733279906747,-0.06933946273011725,-0.27161847920774584,0.17104365459609763,-0.2520942636537603,-0.13834080810539937,-0.15040459024667502,0.06848484791209541,-0.25409256264691554,-0.03125450363707863,-0.016054312144849297,-0.2800251274267458,-0.21797060534537982,0.04866861513756773,0.08956724101772229,-0.17577806825067582,-0.04003084459235302,-0.2889635062686529,-0.0636670895783524,-0.04033257499612773,-0.04676939288551881,-0.42877163341643243,-0.19993711338822595,-0.0058813300400817475,0.17798493729724313,-0.13959316824385543,0.14979644133455536,-0.009245065194423707,-0.13022275231591948,0.07380345965100733,0.030348517991067407
wght_V_input_25,-0.3681014307453114,-0.7004537931165842,0.03785906115283416,-0.18535774121545445,-0.28424227648012956,0.024815788912808168,0.0531601182379528,0.20956181072208005,0.20058368651374697,0.05127651160823378,0.13238387147404448,0.0179382563390687,0.09566911895684702,-0.3083401651283825,0.4226546559596113,0.03895721223745016,-0.33496149289856025,-0.16389270772856743,0.22663539016151268,0.0715494756812037,0.10663611360676163,-0.04092087480856634,0.021695930988659917,0.4445388587996082,0.07464926556246532,0.5310214336405104,-0.2382232320912237,-0.11962493009413062,0.05822542201179666,-0.12904514253347618,-0.05961756338520734,-0.20106372230306593,-0.10879494969353802,-0.0873811659331866,-0.09257499939542957,-0.1857692397492036,0.01729215438868523,0.12598660718837554,-0.03144860192956729,0.046120545799566204,0.06342090984200355,0.1305576667126035,0.16188244518847542,-0.1271001566980568,0.7734443233960788,-0.04637168504357374,-0.1202038587465874,-0.8698410813857474,0.06500913530352692,-0.16512992238865096,0.12899372313091706,0.2991751789872876,-0.3137260024262692,0.2341255131081066,0.4821267797565959,0.10872834031084391,0.03855156252295058,0.36604567764072743,-0.05665296416473947,-0.057119781712725526,0.17861254846644029,0.20500432338619204,0.056481283436223995,-0.1796472128755759,-0.06091291716289343,0.315553408091074,-0.27027214453200066,0.06633187008846844,0.44272410730090606,0.01750489437070116,0.18258394805834074,0.013149031571981917,-0.006963111749327773,0.3384323571978706,0.28390558515265824,-0.11251526402562277,-0.20263057846262567,-0.24334227169089073,-0.019616331344818345,-0.16206600933123963,-0.020452557150428048,-0.1560238737719121,-0.3446628034063068,0.25488800037558135,0.3807713507526337,0.12837223633025657,-0.3163163195295065,-0.14343879296182513,0.06329095599642773,-0.10398328950169063,0.19403211583451596,0.23789032395123078,-0.04900986800771194,0.6370504487849539,0.14791817919412067,-0.06299649607347634,-0.025017107177543914,0.24408567764474876,-0.2563241410767099,-0.4913936566158615,0.16418193748484572,0.15826767002479653,0.12769587212819028,-0.5411590120416008,-0.14517444927699483,0.20309352376053363,-0.2240939710694607,-0.05081694431251222,-0.24307192739131048,-0.14218687601502145,0.19469136072799725,0.2042844465141034,-0.1950150183318907,0.12694825923733255,-0.5755452995847394,0.10042756022431136,0.059583406529567076,0.17102012806367042,-0.5394629230942924,0.18229493950791156,-0.11023834632626239,0.2670905219263003,0.26892906929006327,-0.3051922804127513,0.027850941490122155,-0.22820007152266364,0.04739256942263926,-0.18288537259507667
wght_V_input_26,0.26418348715837936,-0.7067560044294656,-0.11222295339363153,0.1671349793467539,0.07392149719592528,0.42648075285027903,0.15629053702593523,0.5407118032547553,-0.08175523997228637,-0.027952337648694224,-0.15807610570633354,0.13878353943567057,0.1515699971108054,-0.24379878378064565,0.4315882692684689,-0.11141542553790325,-0.12245215151841411,-0.14431386591797646,0.18225086267389287,0.03667406694523658,0.3376100551217955,-0.0033280002187278945,-0.16213583115578561,-0.5834667990376499,0.014318823263778289,0.15976053700780066,-0.07556179470853143,-0.35421032089600446,0.08866822809103973,-0.14194804621119897,0.11136980774800324,-0.28875417993573715,-0.10985162293437356,-0.09224802391768781,-0.24710143283155944,0.35040978311154813,0.11985238789655486,0.33154100254960184,-0.07492409911677488,0.08216600019676269,0.04982641508039723,-0.11730873241946238,0.22399389932528171,0.23761166295723765,-0.2396197247719607,-0.4153255681669658,-0.09466131273365505,-0.32452809960055795,0.0268023586658287,0.3105218557893292,-0.010413620993205377,0.27547210636244435,-0.1641579714333328,0.3767719430881198,0.10568362149584339,0.1503729344333135,0.14429919229259391,0.6019254177198208,0.01621658950595225,-0.07801179633218604,0.3666987129724901,0.2620221027165814,0.21078469031815106,0.1826671381909331,-0.3259864220101127,0.27758629635457654,-0.07769545021494469,0.02887789203780004,0.1720120403079142,-0.18846147357819584,0.16937706463626978,0.4418618230947145,0.038677509870202825,0.16592636158653917,0.2989424979949002,0.09982949012119476,0.4512060988924233,-0.45207247185484084,-0.012013281809484954,-0.0980790245899571,0.017151626697110147,-0.22485158643576383,0.08346884700342957,0.22552056502702475,0.6789086363309024,0.283464441735526,0.07860652774570827,-0.1862489781042126,-0.21463795827315807,0.07425650139866576,0.05551990047269577,0.1618314584491303,-0.3045071248739146,0.177060847369435,-0.0852182120009974,-0.08412451220252852,0.4076010532443634,0.25897353188141076,-0.3436139266728763,-0.10250402660134841,-0.2702382756791984,0.06464825724598679,-0.028144246893840614,0.08541719869246409,-0.20072285825418315,0.08370120613534757,-0.28952836426382755,0.3646980498310569,0.11020424637547253,-0.24764798282520759,0.12089806873913116,-0.3102396303559567,0.20459632917619508,0.22602492827292467,-0.17415964142097984,-0.08994018760630557,0.12464202791805289,0.139843609358232,0.35364303069610853,0.12573819219792254,0.05360921035171492,0.45336688223746285,0.5202947647657878,-0.0005136759466959634,-0.10933782032291821,0.05162374423702955,0.12019054970891463,-0.024080406850103108
wght_V_input_27,-0.23443449845935757,-0.3792523700486989,0.1842234020279021,0.03810693638475057,-0.06946683519502936,-0.10217257119178544,0.359431793773313,0.4268286449854395,-0.018690186156979222,-0.008663626998131311,0.0006913687443352969,0.3011062780487261,-0.03191642084571283,0.7072620940344142,0.28323965681550156,-0.29195140126116975,-0.25331036247830135,-0.07071589280789266,0.1234902904320344,0.12265803938270829,0.21565681308532908,-0.1166511467230065,0.17893169684042168,-0.3868176815918895,0.028635892669342747,-0.5656642167252723,-0.09241971392305294,0.15594408647711866,0.028003843213067474,-0.09496947728469061,0.03865632498232718,-0.18538496227488094,-0.05063893229730651,0.19148722892159778,0.19874927400059414,0.3013988739362709,-0.0102051810157974,0.24183819558829053,0.05853080199831126,-0.013227652029523779,0.0049252635947339765,-0.2646330488686854,0.4478123760707662,-0.13827848327613354,-0.7329174729592888,0.0033582475263025276,-0.11787545571617139,0.39184219809505855,0.004164128942234749,0.022204572396176108,-0.0801848018961408,0.2221384149624431,-0.21792879555637248,0.17294895914327246,0.28526343974403395,0.32790998749390926,0.3075426095821323,0.35186557670713015,0.21346433956054445,0.006676894760816505,0.0970908922182131,0.09745488262374567,0.1592090574658191,-0.0073935827335618,0.06608137703608889,0.41600454816343857,0.10894117661060039,0.3199793559743467,-0.2755043064138378,-0.4599409066802599,0.025710312552327634,0.46018600940925797,-0.04490894289975731,0.17059501455194315,-0.1878979634314673,0.05102720582321614,0.04540381613003787,-0.4700936206701808,-0.03212408756023301,-0.1607983244306327,-0.15508704094626952,-0.1842700400580774,0.2446956428486361,-0.09528764790416346,0.38333506177095256,0.3922780121089786,-0.1773295287553845,0.29293238783453585,-0.0758960149181342,-0.0398949393829237,-0.1018140798256119,0.06972282021967333,0.5258548350282003,-0.15948966692512656,0.16738468196904704,-0.12304530867734224,-0.023755155628751724,0.0008010953951630038,-0.07936060263467731,-0.37294318325157516,-0.06310646501065391,0.20448869958417987,0.032555430991034896,0.2683166919624363,-0.38418441747047893,-0.42204856755945924,-0.5520773822186514,0.5221734899989423,0.22251243692401176,0.03357641563784558,-0.000372596375776901,0.011351469126685084,0.5183768951402984,0.19349535739003046,-0.05677021500753927,-0.22857111516128947,0.0881608746703654,0.04713773728292514,0.2985308286735643,0.21133250501795064,-0.03227391894581585,0.4522457781958492,0.2073391361828399,-0.1634464467655296,-0.045763875457007115,0.36846148461322364,0.043482422551250434,-0.047334389339043284
wght_V_input_28,-0.2861964525932221,0.0088390098070146,0.18707441084256482,0.12848191771555884,-0.20069674808145566,-0.18015906367256612,0.3270331757513295,0.3300150156926695,-0.022083116025762444,0.05824632744687238,-0.10721581934714643,-0.16750545381022391,-0.14667298272416063,0.3534093705348808,0.06075648825691543,0.12586333660598464,0.03479469794931844,-0.02315724720613511,-0.24035594968516227,0.10792988857259622,0.024911612829817156,0.1387907784328623,-0.15778610843859142,0.44990060957037414,-0.0276936780514033,-0.19715504416666668,-0.08974857713773163,0.12210262540736641,0.020186373285105724,-0.5361315982743929,0.05489166709263419,-0.18328273184026503,-0.16041354108195485,0.046771849943877154,0.17284024788975072,0.09698890100410654,0.2131488570919722,-0.07861052696857111,0.08039029784131671,-0.1296039372268143,-0.06984513366588159,-0.11999056761254724,0.20314967852357063,0.23651038663847004,-0.07502078132758559,0.10503628232556037,0.0900618735323439,0.10809159237659383,-0.01242395854276886,-0.6414378424204391,0.02942883188827099,-0.1344589089657419,-0.0831160158062272,-0.011541444453087586,0.11119906319099862,0.08958322838797797,0.2227943080566439,0.3640693804519568,-0.059343578912402155,0.048001931714546,0.024816940402204838,-0.12145524630378725,-0.214055063829465,0.18321474280460118,0.027905763596824038,0.2968658451750427,-0.5120412062953413,0.0588704132284454,-0.1411282280417009,-0.2522835008416034,0.2858468760755471,-0.11713636115814752,-0.16707662185123626,0.08256825620060917,0.03994837633182402,0.04688921658064507,-0.12668092882504767,-0.35551605352657595,0.03525469181061398,-0.1749399275029537,0.03621888383374502,0.026482275965295222,-0.013680730911926484,-0.05339047020028775,-0.06336611289828689,0.2299256425644122,-0.12305367894065268,0.5503352371624779,-0.10953761569848461,0.02123794158660125,0.0004739220832505556,-0.18581581461545027,0.29552943477405547,0.16250315852115482,0.4606196590734932,-0.05126175059254151,-0.29431596229677137,0.08759389188571974,-0.07390745390913096,0.04083080939918927,0.020557075934281653,0.0785266587520762,-0.011851548142140888,-0.13230733314318233,-0.12207389577022501,-0.05043901259482979,-0.3580617250456306,0.09215030544551381,-0.23303689544521744,0.007067503714825476,0.1978772622080208,0.18974033332865683,0.1706058251653663,-0.13789524557254773,0.1758839450575647,-0.05456519951566509,-0.22230841847707017,-0.0788082567094138,0.19391963185143618,-0.21888583174929882,-0.06454212016661832,0.25377301910283157,-0.021396760515990737,-0.049041856386779555,-0.043952426100380165,0.34470396480239285,0.15199840121601818,0.3696570396017794
wght_V_input_29,-0.0892292648233929,0.15266580336466767,-0.09516058150645368,0.016777093182622004,0.08370434721578962,-0.1066575155683367,0.09346202656211626,0.4707173576497539,-0.16158337967603245,0.2094095723641386,-0.0062914152669753965,0.10811542639141261,-0.12898839948638416,0.1082093891981448,-0.2957673165722919,-0.05818964547962547,0.14143805365580844,-0.019343767344898996,-0.11998843951760502,-0.04064211848171305,-0.13163909549420874,0.1980802464322103,0.07125086662809964,0.14231337685421816,0.1501458110438389,-0.0548600419096922,-0.005892382371426578,0.3945823300201483,0.18528454706975026,-0.2913133399120691,-0.005682866279148331,0.24376952494186094,-0.05194142072029913,0.47396633594777665,-0.03675008775897659,-0.12231334482473966,0.41519009374945837,0.04356020725218657,-0.08691099718148772,-0.1410255220922878,-0.0058769348787965385,-0.18378422086654647,0.15274420070149033,-0.09786737535406381,-0.002230671243159102,0.17395909060089018,0.2292400787401457,0.15765634253709065,-0.13407904554947148,-0.39994255921719646,0.1829936232696887,0.007774104711321183,-0.16559815125562433,-0.046514300477128755,0.27467922228009034,-0.10650066641563141,0.020433091203228032,-0.043435036356058734,0.14819755858944023,-0.18325431680424345,0.06713453600064827,0.12186412352373793,-0.015249461141458254,0.040652302431571835,-0.19603804325429977,0.009141120309757807,-0.25150389882868784,0.0036480248414280116,0.1130606593490874,-0.20178454066324672,0.11040061947235474,0.0655299600514324,0.03130672842723847,-0.12926223273786244,-0.03344189264905815,0.30784068004589904,-0.2814021787206999,-0.174456857414421,0.01704100411059813,-0.04431715686209463,0.05242569945836912,0.3552016013385094,0.01997947756441778,-0.39928431442188617,-0.20299075905833464,0.031758753832804916,0.2939404955325993,0.14076584468912484,-0.19786348132991152,-0.4534702241427872,0.15803865279376536,-0.245183756324659,0.16811098336815988,0.1662343582372831,0.30264147026260163,0.3449381112326223,-0.1674326354856828,-0.22936084237975313,-0.049160980201155384,-0.040856876909591944,0.3399974897436697,0.12399643405109126,0.21546975414305167,0.06217520809786959,-0.03466978641902518,-0.29319703364496574,-0.10346838150888668,0.3522655712374659,0.03322127564762086,-0.0037130509667111637,0.005070553966041692,-0.06443558593862538,-0.3847245746692336,0.10187174981294132,-0.05693439407367046,-0.21885470583953928,-0.3590047765407784,0.22977316169833475,0.16689134493669713,-0.1774024452639235,-0.22826887229308915,0.0829937292603371,-0.08169992840014981,-0.1421334822241103,0.10746861322694003,0.193704415938409,0.011477097901869888,0.1546810322692968
wght_V_input_30,-0.22417166846212883,-0.2601835375382818,0.1288942344122759,-0.3036810694484495,-0.07229742090206845,0.29767616512919964,0.13238638098613553,0.076803540472887,-0.3538979802204217,0.2699309070102419,-0.15288059576365115,-0.08821183925782743,0.00973270390521864,0.0053317621934565115,-0.30415250025064017,-0.07923324115874299,0.30153533774043856,0.07898550850918426,-0.2180468104363649,0.04549206704790713,0.08488158858307873,0.07208132289931407,-0.03812220646883373,0.012878954981976476,-0.19119031306353798,-0.14253457375056985,-0.17161903490051952,0.2610025607799078,-0.058987301639889585,0.015023548021809888,0.03987946595142421,-0.16675770963339215,-0.28942688994790344,-0.06024851787282359,-0.15876526731060403,-0.20176555836938354,0.04938110505166108,-0.013518863726126757,0.15039121210905623,0.08581363279044706,-0.02780066172370358,0.07343198455509738,0.22851506537504226,-0.06492400643475087,0.09730518654106035,0.004489374489292651,0.04412458870804045,-0.07638239127111977,-0.014659859268405469,0.16578630142378514,-0.016649764615088596,0.09149969791889465,0.04541145743858141,-0.06254704129786864,0.14157887165772057,0.14389654492879256,-0.1367197808179253,0.0679753839340113,0.2335295131702518,-0.1001782038266086,-0.03822009784078819,0.2712962763085944,-0.04599083404732964,0.09396209687643543,-0.21847282906877913,-0.1091538297676629,0.2572704350012301,0.011850219718121592,-0.27156580840973865,-0.023005957146489914,-0.24941646562587552,-0.031695449747651316,-0.062241625673243525,-0.10751513390066816,-0.24236528462656431,-0.09217628947607509,-0.19297855621491844,-0.08600332971454339,0.03302305787678506,0.1919738460753978,-0.004559030924626355,-0.07278798656638626,0.0005950786684905119,0.1452971540878438,-0.31897095373123363,-0.1032990800246292,-0.05928063165963008,-0.2091507576481946,-0.07148193529956205,-0.1519909525775557,-0.1971532495833565,-0.2344166571564528,-0.2777152202440634,0.03785554460851121,0.027262423121956963,0.1347739366852967,0.024475671405443,-0.26190494841449924,-0.008095849485795314,-0.20588187752248452,-0.005760060490485482,-0.08702355840747221,0.05261801718166278,0.010413837310451758,-0.24967712490626134,0.023995755991434234,0.07501890133512054,-0.02199669944791254,0.05177561552936688,0.29304937185061447,0.24230748663242443,0.030956843019018715,0.09434968855078826,0.245253444287296,0.0016333432752422647,0.09089543215099871,-0.061527295982001934,-0.02345715254499353,0.0848654795378917,0.15536572257591594,0.05479612122642183,-0.08386861563222528,0.03672552068208222,0.0778392199149078,-0.14311390872054364,-0.09839192840223032,-0.05518643681422768,-0.061643975435658506
wght_V_input_31,-0.12181630834884248,0.021585072833889038,0.2740252619096649,-0.08932711841079068,0.17808641893107705,0.16592896026029275,0.40204847682996525,-0.011740410866234011,0.017332680070154892,-0.21655685813497222,0.11153829911753678,0.055543621981482875,-0.0851495254695061,0.1693319420334914,0.04700160464647649,0.059407665520246296,-0.009980562920850113,0.11924788051079545,-0.08879217006307606,-0.05937737051932196,0.15182311820316213,0.08000641252309831,-0.1836643541635538,-0.22281422051131605,-0.04419396670356404,-0.08062571195601682,-0.03350240873958976,-0.010666988049576914,0.04964789314075931,0.16052518606313843,-0.15138203446199316,-0.28924889233638473,0.08831682226064339,0.0458010703100071,-0.14796934127676992,-0.12943109911457965,0.4551943914613986,-0.11029781087846298,-0.04848093599412196,-0.151093817547764,0.16145678962427382,-0.19238730624947453,0.34852070125084306,-0.11437717920981014,-0.04339135256946677,-0.1016448743245457,-0.2405020640056289,0.16641972552172316,-0.10601031235782994,-0.024749550291450113,0.04217520596038564,0.0427430650659077,0.1333675517160571,0.3175806341882227,0.02584924762140976,0.3975491201553482,0.04855546881434522,-0.03725621303547217,0.22410789380673612,0.15434753357851508,0.00978915213779407,-0.11163245325792392,0.12376752381651952,-0.1486445222311807,0.15757701305485197,-0.03361814853209299,-0.20218326139495454,-0.08249039645709437,-0.1110197242907562,0.061249830818543724,-0.07768684236684131,-0.07564485847438726,-0.016532230486323705,0.03382981853314932,-0.273365003662562,0.06126230030736244,0.013927146251111562,-0.12619308015672487,0.072468882466843,0.01728881744830938,0.08950972399766434,-0.06055382905897465,0.029858769737653324,-0.07946171240385815,0.09454334655041846,0.13916238960214714,-0.06944688836196332,0.09665312522390546,0.007029161196594218,-0.07393037168495112,-0.006662699854963135,-0.0011455254471261372,0.025567169849336283,0.15011819835993073,-0.2891665580912251,0.16047697938232244,-0.03195177965510211,-0.07838196263787146,-0.04336024051890485,-0.1378296736608783,0.0652407048872054,0.028370680705701354,0.04079185527860787,-0.038073421381845385,0.046013607707814846,-0.13929304514898846,-0.03855586617366114,0.024477670747295212,-0.00942305574295386,0.25419703521483444,-0.08728771709384753,0.009576237539277744,0.09750747075809726,-0.0435603450694115,-0.007383075660567168,0.05947975879865222,0.0049459886897096125,-0.011360562712508897,0.2856274936442887,0.01476566994563278,-0.09051109966334049,0.01236851514152527,-0.10701451459809946,-0.07573732046708076,-0.15280098291970473,0.16405684140860538,-0.07742321438318969,0.10924491066621086
wght_V_input_32,0.12487576433762261,0.08057331287509562,-0.21122900821908996,-0.3285205651599587,0.25005586661172846,0.11804728424480866,-0.031911819997217365,-0.0775734765255001,-0.00040442968797323127,-0.22874636780977858,0.18507303206505465,0.16222482396140525,-0.1542067238784284,-0.07916199998821163,0.11066981715031943,-0.03387625275484042,0.05595041824952888,-0.31818087890643304,0.0276469740442796,0.20351676852671508,0.27495837524584815,-0.20741482057357713,0.06691989506706936,0.06972265537681949,-0.10896823429823375,0.061524667286417645,0.09640911570726686,-0.3640777862450137,0.13872883008564607,-0.186913335252429,-0.06631245293440802,0.1971923622983998,0.03240340506684424,0.12307449037561116,0.1533201824929006,0.12139959227687465,-0.0621484473012983,0.03768834757823199,0.044683307912213345,0.12915706548906433,0.31617092186524126,-0.007628449324199307,0.01734377489723052,0.23632460927015664,-0.1093566191264206,-0.15957101935323767,0.013275586683687288,0.026398090256853173,-0.04442771302765648,0.1651143658960253,0.24925527618754867,-0.11814268457892566,-0.15708228510872121,-0.09160064189319997,-0.1734691515352658,-0.08867585963688364,-0.1138313243565484,-0.1769439245874012,-0.29441688704841956,0.12205353111493629,-0.0994885080694246,0.11729496119663427,-0.23804189790419894,0.1582153739826518,0.03699562225629524,0.015519180789593882,0.003746371518729802,0.07937297603286156,0.24776374525848927,0.029140366734683162,0.18196943222608664,-0.09839444315843462,-0.18273231865511586,-0.12794611811197876,0.21001501166176667,-0.06493534179580618,0.010291975045502855,-0.08986367258041252,0.2049482281186839,-0.2916107837977405,-0.04383477931562268,-0.04196271274438795,0.05202552458340881,-0.028697640731324726,0.08543714743607034,-0.042281464422866066,0.021161620921618732,-0.08125989898264405,-0.15090539061094835,-0.13993048014542167,0.039360949624630825,-0.07398762477964521,0.2175136692745757,-0.0048621808948592846,0.19613722729109243,0.06895034955529267,0.3222377556250929,0.2618379987822309,-0.13860819184786508,-0.3734264169808328,0.0022451627423086653,-0.2320463517412941,0.0913829956801558,0.22947006777781886,-0.10121979237555943,-0.16677415892524255,0.04152538326687382,-0.15629988613111723,-0.06806534320526914,0.12248864150766346,0.024715178324924203,0.06180054559789803,0.11413167594044621,0.004858742730329116,-0.20475245608371045,0.07092278208880166,0.09054192396637836,-0.15594868817179244,0.12585323341200447,-0.2131128211429194,-0.09603935185134593,-0.019225612075545125,2.927188791105305e-05,-0.12388487024378593,0.29863295595443573,-0.13320921178528414,-0.07329892862796066,-0.07270717103877805
wght_V_input_33,0.021036902334231982,0.2861951296203216,-0.024392861964240974,-0.4371921195079722,0.11198152263082752,0.12035174309813393,0.22421944101558453,-0.15001013021897314,-0.4596551415509849,-0.06513382504764025,-0.2864331295975291,0.2395767807902261,-0.1340398237019406,0.07353437342710861,-0.049143532800666696,0.11677204602868389,-0.2882724588127777,-0.04316376306136973,-0.05916069570448472,-0.16749347941295392,0.03294022476200615,0.1232713384754558,0.10638027908094837,0.17048661270929247,-0.16393612367567628,-0.27959880121522307,-0.3458902384167535,-0.15215991952823785,0.06796195325521406,-0.26070290951276964,-0.09786917896678402,-0.1335669480473898,0.08432481261760617,0.28257401965464457,-0.14733187814543636,-0.12988483669505765,0.03608848854381218,-0.04009812199602116,-0.07443623724566586,0.2591929684207766,0.03355932454341721,-0.08863407619363185,-0.04065904102649841,0.047270164879014455,-0.16311893201701072,-0.02702829726407066,0.08534560992145178,0.2211441931136852,0.19172172428869624,0.14120491046227818,0.3601091536084957,0.1668845553743108,-0.16561039261555965,0.2430772252470983,0.05664886530765316,-0.13440222427350518,0.04970368053107865,0.05697581288549595,-0.023553947055073923,-0.03622913581448862,0.23535316900206185,0.13001117379182986,0.37590089033153795,0.34438730996641054,0.157584859093059,0.2839401906441101,0.06942958281788753,-0.09763376168344155,0.19848999829407613,0.08395504704707869,0.2377675793581475,-0.2705928410786176,-0.16004833643989783,-0.27440000125617536,0.2598677132860685,-0.04139417808219803,-0.05991719563166224,0.38478870046366564,0.19133724824132545,0.12131044035053401,-0.1769752146879054,-0.0045443544721206,-0.22855946653833056,0.2338920202337202,0.1303862597370795,0.05248006846203263,-0.011323079093563601,0.039756159843772176,0.13471572397547904,-0.19695818070466437,-0.1385728974174684,0.18900514427020956,-0.12164731691741987,0.2354423418571331,-0.36406671361715803,-0.07602118825192453,0.04484421290519931,0.03989761908851169,-0.295313599463357,-0.14833865657446743,-0.2576554563487295,-0.14106243996510584,-0.12879300245787526,0.07885057060884268,-0.12534989187378193,0.4087737916132978,-0.21349671008862417,-0.17306371824808484,-0.584277912827613,-0.029210366021772016,-0.1692446730717417,0.10449377228629939,-0.30072597776421234,0.16713664988360247,-0.14747322126595733,0.0724915688923602,-0.037729661368450663,-0.12785155271748036,-0.28341912369929684,-0.13229150012098323,-0.08344441424341269,-0.1595820328611395,0.03568308126384366,0.007356551197649822,-0.07983080777983154,-0.0766340310126449,0.13121147672976188,0.036391706781501214
wght_V_input_34,-0.08371288505719689,0.33450753811816847,-0.34546449308432525,-0.008271464530597888,-0.07283316944820865,-0.17285634599453278,0.019890687712518482,-0.1787706499805498,-0.5024708227957569,0.1330539661095601,-0.0449959220733065,0.18732537229596335,0.1685911112216173,0.3449429413276877,-0.05804462097480699,0.212644689954784,0.08823280283038971,-0.316511583895601,-0.040258250252199465,-0.14020604283394572,-0.07072546858609194,0.08177917058167053,0.08959846141882295,0.23068599222656985,-0.21100006789426706,-0.3381747700477919,-0.22793524727520176,0.14512112546219064,0.009059708474444062,-0.1405940419325874,-0.3066952985801581,-0.036290544623447316,0.03361740728760723,-0.09559747427561857,-0.17501200454389573,-0.05377108747027381,-0.00599597092576705,0.21983249880363798,-0.08030760262423428,0.2459841797939549,-0.09095212429526915,-0.07359547527433308,-0.08075349554964412,-0.09549081318109677,-0.36798374928036043,0.42197752653147985,0.08066623786238848,0.511327048131166,-0.21978807924948443,-0.340165665323969,0.5328524719556157,0.20835455875570588,-0.28747390871400214,0.22654688780228582,0.12006445470728384,-0.027951249185579622,-0.030287285072167675,0.23498285260343899,0.024842118521871022,-0.02090195100216229,-0.1152138798338066,0.13401134402674963,0.18181044175134886,-0.10356994541067992,-0.01948913318617542,0.02738446603586694,0.12867210637036833,0.04769234940641648,0.4080986913593798,-0.028623655274264755,0.13315628379337008,-0.1199693443777693,0.41419372327744897,-0.03283305188302779,0.19878166637985056,0.15051988249251244,-0.011052481561457985,0.2753663236160939,0.32140166930575575,-0.1662381978645359,0.06406651860936713,0.10199165940113852,-0.03975044696976962,-0.01426770734906519,-0.1384829312214477,-0.008762058097429535,-0.29305454086932653,-0.037757894998536295,0.044087659224868396,0.12392195211771431,0.06406959109751237,0.02073861521589448,-0.08344526044067567,0.4205806988540203,-0.18025766025483844,-0.0025619084933205688,0.17024239981270547,0.14923792617701406,-0.5253850382917606,-0.05949622455984407,-0.0981587540735503,0.12813594199379089,0.0051713983026022104,-0.1663849777161603,-0.34196692386411837,-0.22115778605297598,-0.19864333551430202,0.1408776656809633,-0.1315721064780831,-0.26039774764798224,0.17452215598538764,0.39922552948363405,-0.26161156295469284,-0.17073080766261262,-0.47587115422538656,0.19033263879774076,-0.12941870367007374,-0.0060628169695121255,-0.4921582918230879,0.12199776347311428,0.08257619859566928,0.056169081364289906,0.05752240900398356,-0.03675575487741706,0.09127955792123893,-0.051974594772179444,0.07561920825912458,-0.2083906832164788
wght_V_input_35,0.06996093035535483,0.751751798589467,0.16326585271235966,0.6064676549001997,0.1451271445336632,0.03556618991740211,0.46949930773489235,-0.025447789709660766,-0.5737566626269246,0.06963875743049125,0.23297347164044482,0.35255848218939395,0.0802031351725405,-0.07586328548377316,0.12447824308540283,-0.13977906933244244,0.10338044507288681,-0.2527210805809897,-0.19123043443705018,-0.08840384202941814,-0.1983528244660832,0.013854438659926617,-0.6076982434114627,0.47033350605225255,-0.12356768359189063,0.7306110197872172,-0.060326629026675134,0.1371293233990336,0.009853977044864093,0.1555354046710234,0.03191046880803241,0.02626306486876558,0.11458788144181083,0.08374917127644772,-0.1456152851963216,0.03208951673559068,-0.05025781950131595,0.14048251274521892,0.22088428977926614,0.3024315896017135,0.1477512947294194,-0.06042510274001108,0.16889926840585626,-0.08886714043466895,0.420152843372051,-0.23451924831101495,0.02950131562422207,-0.7814052796350769,-0.0023849715847384296,0.013729258174704797,0.675694586498421,-0.4473728244350557,0.25586256360390647,0.22538923903498959,0.028209316446830942,0.1194534249049895,0.19482963590667435,0.28628763840948535,0.3852366346194655,0.034413594062713986,-0.23008971330807546,0.05834690445547043,0.14100500276824401,0.017468054270588947,0.3037240045675915,-0.23184461749829652,-0.16459506703943944,0.4784941587082493,0.1433252803949676,-0.1958552744850495,0.39877755416867516,0.11507880782406502,-0.411350316371047,-0.018172061155428413,-0.05393492344474029,-0.063181741145772,0.010952649679648511,0.475422790509508,-0.13387335112938273,-0.014403866952610544,-0.047396830383693515,0.019085101377375742,0.12953526910578894,0.014510551115345407,-0.28935197936258594,0.16343672828680136,-0.06414487284801221,-0.13114807578914045,-0.016839828956481322,0.2515830088411414,0.16581771946968354,0.2534719989432936,-0.3822580614762391,0.1796680984617127,0.455467677589823,0.2393705988752448,0.7524753688071767,0.15155419334336598,-0.44928986704739865,-0.02270019264165993,-0.1607882753762406,0.10071336908534005,0.6979317294246238,-0.2580060148711109,-0.13407723685372572,-0.17316074364342543,-0.38078646591396703,0.09617049888268062,-0.010925294058835303,-0.3662080588462182,-0.17899803845171156,-0.2585790719447975,-0.701451748399677,0.01296232718113514,-0.4262778366774011,-0.08352426464872566,0.1567597274964363,0.10062927399206653,0.4021613716938541,0.1158167977859085,-0.04679268962755038,0.20332448361542738,0.23235530704363422,0.16878372549938273,-0.028401282723082535,0.4345420632723263,0.025708024094380503,-0.18467206379518414
wght_V_input_36,-0.23690160692987194,0.37669785677664946,0.34174828335018237,-0.31040634450856863,-0.07781913955562345,0.531932990148313,0.07728843484341331,-0.18129585636618953,-0.003936577794304906,-0.04192927358464705,0.05797288232935083,0.3084533522058884,-0.12120077394898295,-0.7223627787005299,0.1616875469908382,-0.0706394891890997,-0.4137328951897099,-0.292515809938543,0.08395679148314286,-0.18351450606018002,0.16273971276058488,-0.10605476443098248,0.01169011380729081,-0.23489900501005265,0.1781474640003225,0.07867403338407948,-0.0488860759185454,-0.35206180070023935,0.4050374222477507,0.6463397911806144,0.25107629854926977,0.4367173738739845,-0.37911485994955374,-0.06152376440495635,0.029429361227182482,-0.07693330074389794,-0.03540195846403459,0.15275004366969164,0.2537566702757581,-0.11613803960415568,0.26004627686805165,0.06423729985636803,0.3995180451465857,-0.015030702714148293,-0.029043512096552475,-0.39810195255655423,0.03061474287030952,-0.03295423687062078,0.1988131669534345,0.747611775209208,0.30013856119224924,-0.7176594895475167,-0.10750810258758445,0.21510820422628493,-0.09596825289052717,0.14855970743552316,0.19728204238527813,0.4023650461827058,-0.07969794379766267,0.24804451339955627,0.362191283221835,0.3975562863420389,-0.3621316195775873,-0.3160019104036649,0.12612563738283267,0.1998312481634722,0.2995494067181602,0.16086070946417044,-0.0764069568145158,-0.2839533243846617,0.10317988861893021,0.04385942176870385,-0.45167350582283394,-0.04232043560564249,-0.11474609219030961,0.0013015205770356341,0.17921724360945432,0.5890842810166358,0.0721580093816786,-0.113688471319227,-0.37559605898178583,-0.1420618483612916,0.20513146742033259,0.45440965447097065,-0.006347585870529136,0.18953537070287246,-0.20307677004890887,-0.5105416204783956,-0.1936400292169627,0.07362945943268027,-0.23275036219075368,0.2967032003098078,-0.31318576550394217,-0.6132072048604504,0.29451586475996067,-0.023026640192723966,0.15533913753391224,0.3795940165268076,0.1261594141514395,0.27215301090264277,-0.18124682674740836,0.05091139510584227,0.04326144817362565,0.48078197855469795,0.08164984125361181,-0.012826005499160787,-0.31682164243820676,-0.24166604249812854,-0.36237120280769985,0.004947351829838621,-0.022899663447243854,-0.2148975963204521,-0.1439142257918926,0.1698220228605277,0.6249643308613952,0.12591018608183885,0.26924407540062256,0.25470366601575567,0.5468373538802153,-0.26318043731243046,-0.12169043498146022,-0.10910850333895816,-0.19858185814940896,0.14181938593074606,-0.25073344813117865,0.1893546912418273,0.28222991297199307,0.09547828585168705
